tree
version=v3
num_class=3
num_tree_per_iteration=3
label_index=0
max_feature_idx=175
objective=multiclass num_class:3
feature_names=Column_0 Column_1 Column_2 Column_3 Column_4 Column_5 Column_6 Column_7 Column_8 Column_9 Column_10 Column_11 Column_12 Column_13 Column_14 Column_15 Column_16 Column_17 Column_18 Column_19 Column_20 Column_21 Column_22 Column_23 Column_24 Column_25 Column_26 Column_27 Column_28 Column_29 Column_30 Column_31 Column_32 Column_33 Column_34 Column_35 Column_36 Column_37 Column_38 Column_39 Column_40 Column_41 Column_42 Column_43 Column_44 Column_45 Column_46 Column_47 Column_48 Column_49 Column_50 Column_51 Column_52 Column_53 Column_54 Column_55 Column_56 Column_57 Column_58 Column_59 Column_60 Column_61 Column_62 Column_63 Column_64 Column_65 Column_66 Column_67 Column_68 Column_69 Column_70 Column_71 Column_72 Column_73 Column_74 Column_75 Column_76 Column_77 Column_78 Column_79 Column_80 Column_81 Column_82 Column_83 Column_84 Column_85 Column_86 Column_87 Column_88 Column_89 Column_90 Column_91 Column_92 Column_93 Column_94 Column_95 Column_96 Column_97 Column_98 Column_99 Column_100 Column_101 Column_102 Column_103 Column_104 Column_105 Column_106 Column_107 Column_108 Column_109 Column_110 Column_111 Column_112 Column_113 Column_114 Column_115 Column_116 Column_117 Column_118 Column_119 Column_120 Column_121 Column_122 Column_123 Column_124 Column_125 Column_126 Column_127 Column_128 Column_129 Column_130 Column_131 Column_132 Column_133 Column_134 Column_135 Column_136 Column_137 Column_138 Column_139 Column_140 Column_141 Column_142 Column_143 Column_144 Column_145 Column_146 Column_147 Column_148 Column_149 Column_150 Column_151 Column_152 Column_153 Column_154 Column_155 Column_156 Column_157 Column_158 Column_159 Column_160 Column_161 Column_162 Column_163 Column_164 Column_165 Column_166 Column_167 Column_168 Column_169 Column_170 Column_171 Column_172 Column_173 Column_174 Column_175
feature_infos=[-25.143520355224609:77.014656066894531] [-40.414218902587891:60.613407135009766] [-35.448211669921875:37.198246002197266] [-36.801898956298828:37.755397796630859] [-32.754154205322266:66.217124938964844] [-43.153633117675781:44.604331970214844] [-24.862445831298828:36.94415283203125] [-29.692924499511719:37.77923583984375] [-33.454551696777344:59.324954986572266] [-20.372961044311523:95.358352661132812] [-25.678382873535156:62.562957763671875] [-35.157905578613281:37.334766387939453] [-17.898540496826172:34.8751220703125] [-22.639856338500977:24.406618118286133] [-51.962913513183594:76.213768005371094] [-22.459484100341797:26.851741790771484] [-22.222846984863281:26.809900283813477] [-31.573741912841797:32.526771545410156] [-21.818305969238281:50.542976379394531] [-19.755228042602539:22.38641357421875] [-22.021156311035156:22.432046890258789] [-26.531558990478516:29.375532150268555] [-21.239049911499023:24.524656295776367] [-23.241540908813477:24.705863952636719] [-19.416645050048828:21.455305099487305] [-18.072711944580078:19.150323867797852] [-13.860383033752441:20.257587432861328] [-15.68785285949707:19.835290908813477] [-18.915885925292969:21.706533432006836] [-18.351511001586914:27.023134231567383] [-15.711655616760254:17.832429885864258] [-23.555099487304688:25.806236267089844] [-32.26812744140625:33.174201965332031] [-24.022760391235352:31.572221755981445] [-20.217250823974609:22.544448852539062] [-31.547027587890625:31.74810791015625] [-30.396102905273438:32.254337310791016] [-17.921134948730469:20.511636734008789] [-15.54889965057373:21.415227890014648] [-22.586833953857422:24.015802383422852] [-16.398141860961914:16.539554595947266] [-18.279180526733398:25.236232757568359] [-15.738484382629395:26.960582733154297] [-22.006174087524414:24.62138557434082] [-43.161605834960938:55.863307952880859] [-18.065528869628906:19.210817337036133] [-22.778282165527344:28.703561782836914] [-17.983917236328125:18.4727783203125] [-17.867195129394531:18.869274139404297] [-19.552532196044922:20.789384841918945] [-28.051002502441406:31.759809494018555] [-17.400802612304688:18.86705207824707] [-12.197269439697266:17.708227157592773] [-18.607692718505859:20.257926940917969] [-21.413646697998047:23.067726135253906] [-15.094090461730957:16.922126770019531] [-17.220611572265625:19.897422790527344] [-13.878141403198242:16.969640731811523] [-17.160007476806641:18.677610397338867] [-15.89635181427002:19.290493011474609] [-17.779815673828125:18.728359222412109] [-15.585268020629883:16.645835876464844] [-13.758983612060547:18.063613891601562] [-20.769754409790039:21.254436492919922] [-13.564043998718262:14.818615913391113] [-13.934065818786621:18.988935470581055] [-14.189753532409668:14.666009902954102] [-15.00590705871582:19.103754043579102] [-11.304989814758301:15.520835876464844] [-17.225910186767578:19.822015762329102] [-16.341606140136719:19.793914794921875] [-15.804125785827637:18.605701446533203] [-13.608277320861816:14.133859634399414] [-14.419279098510742:16.671926498413086] [-14.826647758483887:20.083902359008789] [-14.21415901184082:22.557687759399414] [-13.740322113037109:14.491570472717285] [-14.733229637145996:15.051713943481445] [-12.96869945526123:14.167074203491211] [-12.481724739074707:58.173717498779297] [-10.338364601135254:95.237106323242188] [-17.490245819091797:27.043195724487305] [-12.939945220947266:17.742818832397461] [-12.074335098266602:29.827985763549805] [-12.635536193847656:30.769535064697266] [-10.38755989074707:48.585945129394531] [-12.249650955200195:74.24932861328125] [-10.366020202636719:136.86703491210938] [-12.536578178405762:38.603000640869141] [-12.62596321105957:45.309425354003906] [-15.717159271240234:19.184715270996094] [-13.428798675537109:15.384072303771973] [-12.050675392150879:48.224960327148438] [-11.502175331115723:16.004837036132812] [-10.1187744140625:21.964950561523438] [-13.715584754943848:27.497613906860352] [-11.485421180725098:12.828121185302734] [-12.381194114685059:16.054880142211914] [-15.029895782470703:17.776248931884766] [-10.781661987304688:24.531787872314453] [-10.798317909240723:12.227765083312988] [-13.475612640380859:13.586299896240234] [-11.036534309387207:12.302066802978516] [-9.5289602279663086:12.415821075439453] [-9.7836322784423828:12.740298271179199] [-14.689545631408691:18.042566299438477] [-12.75614070892334:27.66844367980957] [-11.008456230163574:13.810818672180176] [-10.300436973571777:13.758339881896973] [-11.627267837524414:11.795836448669434] [-12.700881958007812:13.676885604858398] [-11.389704704284668:13.254392623901367] [-36.371864318847656:36.890911102294922] [-10.0130615234375:16.944751739501953] [-10.29804515838623:16.416397094726562] [-11.153641700744629:17.668031692504883] [-11.948886871337891:13.836958885192871] [-11.013332366943359:12.766751289367676] [-12.723255157470703:15.38704776763916] [-12.724948883056641:17.733503341674805] [-11.084686279296875:13.198927879333496] [-13.240132331848145:19.515625] [-13.527620315551758:14.062494277954102] [-12.75568962097168:15.144376754760742] [-10.024045944213867:38.316417694091797] [-10.443609237670898:25.460712432861328] [-10.191995620727539:16.052892684936523] [-10.570657730102539:12.229422569274902] [-10.921795845031738:12.069087028503418] [-10.365102767944336:10.708402633666992] [-9.7943496704101562:13.262726783752441] [-10.667097091674805:10.724157333374023] [-9.0374650955200195:14.081358909606934] [-8.581568717956543:10.422076225280762] [-12.074464797973633:10.394737243652344] [-9.2661123275756836:9.3586454391479492] [-17.270029067993164:21.548725128173828] [-9.5956707000732422:14.072671890258789] [-9.842127799987793:11.09423828125] [-9.4177217483520508:13.343144416809082] [-11.692495346069336:14.559866905212402] [-10.872879028320312:11.970380783081055] [-10.214582443237305:11.969680786132812] [-10.149111747741699:11.600543022155762] [-9.519073486328125:10.64124870300293] [-8.9735574722290039:10.037782669067383] [-9.7942924499511719:10.208320617675781] [-9.655522346496582:10.706333160400391] [-10.168538093566895:16.356456756591797] [-10.373029708862305:8.81951904296875] [-9.0374603271484375:9.2102956771850586] [-11.07606315612793:11.407001495361328] [-9.9751052856445312:10.673514366149902] [-9.6417236328125:14.619230270385742] [-8.6971311569213867:12.029680252075195] [-9.420506477355957:10.501744270324707] [-9.481266975402832:11.186344146728516] [-8.6011886596679688:13.989385604858398] [-9.4884634017944336:9.6635885238647461] [-9.7445058822631836:10.198768615722656] [-9.3641176223754883:10.065693855285645] [-13.828934669494629:19.21893310546875] [-9.7068910598754883:11.102666854858398] [-21.781850814819336:32.177131652832031] [-11.67011833190918:18.68121337890625] [-13.614640235900879:20.070854187011719] [-9.4081563949584961:9.3812847137451172] [-14.477045059204102:26.047805786132812] [-32.827762603759766:40.208820343017578] [-10.847780227661133:11.394061088562012] [-12.634753227233887:14.70161247253418] [-11.219644546508789:11.689705848693848] [-8.2366180419921875:9.8337364196777344] [-9.9149208068847656:10.903251647949219] [-9.6809606552124023:11.355190277099609] [-13.640598297119141:16.354610443115234]
tree_sizes=3709 4017 3273 3552 3203 4170 3634 4115 3646 3887 4193 3766 4203 4168 3733 4107 3743 4414 4106 4155 4015 4182 3890 4315 4249 3770 3863 4114 4087 4279 4670 4291 4291 4132 4120 4132 4445 4134 4428 4239 3944 4043 4325 4305 4328 4081 4332 4771 3967 4013 4221 4526 4168 4643 4115 4238 4191 4447 4321 4358 4437 4433 4531 4388 4448 4288 4067 4315 4205 4134 4321 4312 3985 4419 4003 4062 4284 4319 4305 4169 4100 4303 4122 4328

Tree=0
num_leaves=34
num_cat=0
split_feature=35 85 34 83 86 3 103 37 31 83 35 65 71 37 48 27 163 91 57 99 3 167 53 94 161 114 68 148 35 81 100 75 99
split_gain=186.872 44.2896 28.7437 14.3254 12.876 11.695 10.7369 8.8113 8.79749 6.87004 5.36658 4.88382 4.21364 4.06047 3.97297 3.86644 5.15508 3.61681 3.54345 3.52633 2.82248 2.07492 1.67359 1.52651 1.41803 1.91888 1.41547 1.37346 1.24614 0.66556 0.62342 0.577538 0.0823911
threshold=-3.1119396686553951 -1.7131937742233274 1.352934777736664 3.078752994537354 0.84767156839370739 -9.2913608551025373 -1.2217642664909361 -3.9362155199050899 1.258545517921448 -3.0506222248077388 1.420991122722626 -1.3819780945777891 -0.82074058055877674 1.9145778417587282 2.9327027797698979 5.9297921657562265 -2.0791333913803096 1.52625048160553 -0.94102272391319264 1.6637443304061892 -1.5680601596832273 1.2712471485137942 1.1212213039398196 0.7741113305091859 -2.2056066989898677 2.3544884920120244 -0.89641115069389332 -0.016702284105122086 -0.39802715182304377 0.37092231214046484 0.11033330112695695 -0.36330516636371607 -0.69162318110465992
decision_type=2 2 2 2 2 2 2 2 2 2 2 2 2 2 2 2 2 2 2 2 2 2 2 2 2 2 2 2 2 2 2 2 2
left_child=7 4 3 5 18 12 11 -1 10 -8 14 -7 -3 29 21 16 -11 22 28 -6 30 26 -13 31 -18 -26 -4 -5 -2 -12 -10 -20 -22
right_child=1 2 8 27 19 6 9 -9 20 15 13 17 -14 -15 -16 -17 24 -19 23 -21 32 -23 -24 -25 25 -27 -28 -29 -30 -31 -32 -33 -34
leaf_value=-1.0774844396377372 -1.092596808048089 -1.0605336655698403 -1.0910176231894835 -1.110884065897199 -1.0009443931483453 -1.0794098248498629 -1.1028656099727077 -0.91908422078651975 -1.0782535325685463 -1.1061950729760104 -1.1541740189310747 -1.1783441539156567 -1.1320188117188752 -1.0705538815540705 -1.1141185386755879 -1.106706473757193 -1.1185580121624163 -1.0876198195349844 -1.0984334393839243 -1.0984334393839243 -1.1071102640513966 -1.0994031772807367 -1.1027665569432579 -1.108805608004293 -1.2379646158024697 -1.1178286116492782 -1.019814268733181 -1.0596577321880976 -1.1454418486944347 -1.0984334393839243 -1.1159976255709507 -1.0499866526931776 -1.1684828088410519
leaf_weight=313.36134284734726 234.68764400482178 278.2470930814743 325.80689972639084 232.90970730781555 820.51778566837311 399.5912726521492 309.36098527908325 1705.0412924289703 245.35526418685913 242.68835914134979 312.9168586730957 573.82906895875931 435.59449076652527 245.35526418685913 276.02467221021652 227.13141304254532 249.35562175512314 229.3538339138031 244.46629583835602 224.02002382278442 246.6887167096138 264.0235995054245 275.58018803596497 345.80868756771088 2826.4748640656471 241.35490661859512 671.61558729410172 251.13355845212936 391.14607334136963 222.2420871257782 224.90899217128754 356.47630774974823 461.37457287311554
leaf_count=705 528 626 733 524 1846 899 696 3836 552 546 704 1291 980 552 621 511 561 516 550 504 555 594 620 778 6359 543 1511 565 880 500 506 802 1038
internal_value=0 -0.0501947 -0.0794826 -0.115918 0.0593945 -0.128427 -0.143123 0.250801 -0.00368514 -0.169352 0.031789 -0.0481383 -0.00212362 -0.0284491 0.062412 -0.180343 -0.188263 -0.0776429 -0.00326792 0.127855 -0.0639327 0.0832606 -0.100917 0.0325934 -0.198045 -0.205864 0.100087 0.029468 -0.0496454 -0.0667301 0.00252176 0.0565043 -0.0932241
internal_weight=0 12886 10268.9 6772.61 2617.12 6288.56 5574.72 2018.4 3496.31 4096.37 2317.98 1478.35 713.842 780.514 1537.47 3787.01 3559.87 1078.76 1572.59 1044.54 1178.33 1261.45 849.409 946.751 3317.19 3067.83 997.422 484.043 625.834 535.159 470.264 600.943 708.063
internal_count=33532 28991 23103 15237 5888 14148 12542 4541 7866 9216 5215 3326 1606 1756 3459 8520 8009 2427 3538 2350 2651 2838 1911 2130 7463 6902 2244 1089 1408 1204 1058 1352 1593
shrinkage=1


Tree=1
num_leaves=37
num_cat=0
split_feature=0 4 36 36 35 25 10 67 34 6 95 14 35 35 57 53 82 14 117 23 112 35 100 92 6 149 48 30 99 56 175 28 28 74 34 37
split_gain=108.278 56.785 53.4742 57.5772 30.903 29.8864 21.6066 20.206 18.4005 18.1281 15.1004 11.9524 11.4833 9.25033 7.65539 6.24686 5.37449 5.21075 4.85521 4.56142 3.79421 3.63991 3.37975 3.23649 3.21013 2.9762 2.96597 2.90805 2.78806 2.28805 2.08285 1.25267 1.1639 1.09825 0.485046 0.170674
threshold=12.596045494079592 6.1477148532867441 4.3586595058441171 -2.1329171657562251 -3.1119396686553951 2.6364924907684331 -2.3529671430587764 -2.062250971794128 2.8706049919128422 5.0424704551696786 2.0215506553649907 5.1448206901550302 2.2906788587570195 4.1267614364624032 2.9981557130813603 3.0586755275726323 0.28045336902141577 2.9414464235305791 1.1884431242942812 0.27007240056991583 0.66271561384201061 -0.22077532857656476 -1.3575770258903501 -0.82835954427719105 0.48681829869747167 1.4488047957420351 1.562025308609009 4.4216840267181405 0.018342506140470508 -0.051499871537089341 -0.28852051496505732 -0.33118475973606104 0.71164375543594371 -0.2729730606079101 -3.075289130210876 -0.17077876627445218
decision_type=2 2 2 2 2 2 2 2 2 2 2 2 2 2 2 2 2 2 2 2 2 2 2 2 2 2 2 2 2 2 2 2 2 2 2 2
left_child=1 2 3 12 26 7 19 29 10 -2 11 13 16 14 15 25 21 18 20 24 30 -1 -18 -24 -3 -9 -5 -8 -10 -6 -7 -23 -31 -12 -4 -25
right_child=9 6 34 4 5 17 27 8 28 -11 33 -13 -14 -15 -16 -17 22 -19 -20 -21 -22 31 23 35 -26 -27 -28 -29 -30 32 -32 -33 -34 -35 -36 -37
leaf_value=-1.1651101622451536 -0.88433605952312422 -1.117363762703939 -1.1163996834546224 -1.1646774602475225 -1.1275653292009056 -1.0985765162522159 -1.2564881098218441 -0.91196255188010888 -1.1259488395661195 -1.0946944287625291 -1.1198140542350703 -1.096519960518183 -1.2104776287615411 -1.0949481797321154 -1.0795467105027767 -1.0815521570775624 -1.1284725565626461 -1.1515327761045067 -1.1330813277624281 -1.144761694524316 -1.1158757645147397 -1.0723925680651329 -1.1148923641401007 -1.0929658130429658 -1.0458546236645136 -1.0666014440288201 -1.0931416682791786 -1.1171854098690606 -1.0666264962362022 -1.0582887380895198 -1.0261210721489209 -1.1197852741653751 -1.1081574760935706 -1.0743816752848852 -1.2207833689846572 -1.0345306535457612
leaf_weight=745.79113554954529 677.34546518325806 239.11539387702942 226.67072653770447 628.90015304088593 429.78547561168671 277.33830070495605 1069.7969387769699 1900.0340312719345 361.78425765037537 238.67094147205353 223.11510729789734 304.8943498134613 652.45613050460815 225.78182172775269 309.78332626819611 231.55970299243927 236.89313185214996 429.34102320671082 311.11668348312378 391.11811637878418 259.11575210094452 223.55955970287323 234.22641742229462 225.78182172775269 248.00444197654724 281.33837234973907 286.67180120944977 222.22620248794556 356.45082879066467 252.89341843128204 398.22935485839844 234.22641742229462 226.22627413272858 223.55955970287323 832.45935451984406 287.11625361442566
leaf_count=1678 1524 538 510 1415 967 624 2407 4275 814 537 502 686 1468 508 697 521 533 966 700 880 583 503 527 508 558 633 645 500 802 569 896 527 509 503 1873 646
internal_value=0 -0.0223833 0.0068601 0.030513 0.0738453 0.0966243 -0.156802 0.131231 0.157213 0.274867 0.183266 0.204679 -0.083814 0.222166 0.236598 0.254409 -0.0331317 -0.0172807 0.0194732 -0.0173441 0.0534739 -0.0708255 0.0197831 0.0506715 0.0377853 0.269951 -0.0748315 -0.223014 0.00375713 -0.00425052 0.0835003 0.00411629 0.0348181 0.00226768 -0.172155 0.0820021
internal_weight=0 13987.4 11817.1 10758 7917.92 7002.35 2170.26 5327.21 4418.3 916.016 3700.07 3253.39 2840.05 2948.5 2722.72 2412.93 2187.59 1675.14 1245.8 878.238 934.683 1203.58 984.018 747.124 487.12 2181.37 915.572 1292.02 718.235 908.905 675.568 457.786 479.12 446.675 1059.13 512.898
internal_count=33532 31471 26588 24205 17815 15755 4883 11986 9941 2061 8325 7320 6390 6634 6126 5429 4922 3769 2803 1976 2103 2708 2214 1681 1096 4908 2060 2907 1616 2045 1520 1030 1078 1005 2383 1154
shrinkage=1


Tree=2
num_leaves=30
num_cat=0
split_feature=36 1 32 8 32 98 36 36 36 36 6 120 4 86 86 108 5 37 116 32 86 81 98 160 92 34 14 37 32
split_gain=299.302 99.5262 65.5915 30.7996 28.1583 14.5376 13.7858 13.105 11.2373 8.07308 7.47164 5.69958 5.12108 4.70994 3.77335 3.54958 2.89355 2.42903 2.11707 1.88159 1.81132 1.68556 1.59016 1.32304 1.1793 0.77324 0.44849 0.412834 0.338306
threshold=-2.0123376846313472 5.8382685184478769 -3.2192262411117549 -2.9616107940673824 0.41842624545097357 -2.0398504734039302 2.2465766668319707 -3.9374502897262569 3.2354013919830327 -1.1786072254180906 6.04317331314087 0.32682695984840399 0.4862330704927445 -0.47803242504596705 1.4510569572448733 -2.7504526376724239 -8.5767493247985822 -1.483121871948242 0.63962855935096752 -1.117706775665283 -1.1956478953361509 0.82533881068229686 -0.6886618137359618 -2.1980484724044795 2.6632536649703984 0.69374093413352977 1.9800716042518618 4.9548766613006601 -4.5942554473876944
decision_type=2 2 2 2 2 2 2 2 2 2 2 2 2 2 2 2 2 2 2 2 2 2 2 2 2 2 2 2 2
left_child=4 2 6 11 27 13 14 -6 10 -7 16 22 -10 -5 28 -11 -3 -9 -13 -12 -19 -18 -4 -17 -25 -22 -23 -1 -2
right_child=1 8 3 5 7 9 -8 17 12 15 19 18 -14 -15 -16 23 21 20 -20 -21 25 26 -24 24 -26 -27 -28 -29 -30
leaf_value=-0.88838769885579438 -0.99287485275306619 -1.0984628013607267 -1.100263340274072 -1.0783661606480988 -0.98750310050411516 -1.1359436368721707 -1.138135264269287 -1.0617852633236884 -1.1529594202388649 -1.1217200402666898 -1.0711729328254014 -1.1124861518333737 -1.0703148874218671 -1.1570548517630841 -1.1007664494969791 -1.1276484158685154 -0.99485860103798562 -1.0807039220138415 -1.0577561328471421 -1.1230813685184482 -1.0968071738601872 -1.0999371922347676 -1.165817716514395 -1.2795059900208818 -1.1273613377406588 -1.1472059204768388 -1.060245609720883 -1.0609521914780728 -1.0812386155740914
leaf_weight=1734.0360569953918 351.51781678199768 231.53069853782654 302.18977928161621 312.85530090332031 775.47230124473572 566.6058361530304 417.73293018341064 284.41390991210938 413.73335957527161 240.86302995681763 236.86345934867859 439.06397342681885 231.97509527206421 399.06826734542847 227.97552466392517 238.1966495513916 1004.7810161113739 228.86431813240051 261.74967646598816 416.8441367149353 225.30914425849915 320.41004538536072 662.15113401412964 3128.5530090332031 222.19836711883545 250.19536137580872 250.19536137580872 239.97423648834229 286.19149684906006
leaf_count=3902 791 521 680 704 1745 1275 940 640 931 542 533 988 522 898 513 536 2261 515 589 938 507 721 1490 7040 500 563 563 540 644
internal_value=0 -0.0822493 -0.139042 -0.1768 0.230456 -0.213574 0.054009 0.0997836 0.0637666 -0.234534 0.092274 -0.0428283 -0.037398 -0.0436854 0.11176 -0.252136 0.120683 0.00810027 0.0216182 -0.00205599 -0.0248772 0.133933 -0.082604 -0.261119 -0.269469 -0.0525565 0.0380688 0.30809 0.138398
internal_weight=0 11163.2 8056.91 6773.5 3738.27 5108.34 1283.42 1764.26 3106.33 4396.42 2460.62 1665.15 645.708 711.924 865.685 3829.81 1806.92 988.783 700.814 653.708 704.369 1575.39 964.341 3588.95 3350.75 475.505 570.605 1974.01 637.709
internal_count=33532 25120 18130 15242 8412 11495 2888 3970 6990 9893 5537 3747 1453 1602 1948 8618 4066 2225 1577 1471 1585 3545 2170 8076 7540 1070 1284 4442 1435
shrinkage=1


Tree=3
num_leaves=32
num_cat=0
split_feature=36 32 1 36 96 32 36 4 25 36 36 2 73 94 99 68 116 37 86 100 4 37 86 118 94 36 11 160 141 93 116
split_gain=261.906 99.3422 37.7003 32.9871 28.7072 17.1356 14.4885 12.2056 8.26897 7.6452 5.55853 5.17971 4.3635 4.3064 4.21148 4.09683 3.54915 3.27956 3.21736 3.15573 2.88311 2.7933 1.78613 1.72958 1.58118 1.15879 0.737653 0.603864 0.578158 0.408621 0.0149556
threshold=3.9241325855255131 1.3973865509033205 6.8185274600982675 -2.6623028516769405 2.0512102842330937 3.6253744363784794 1.6398449540138247 7.4247097969055185 6.1436173915863046 1.2615945339202883 -0.38686624169349665 3.6792162656784062 -3.2730205059051509 -1.7877562642097471 -1.2429754734039304 2.0701220035552983 -0.27037015557289118 -2.6740930080413814 0.51867768168449413 -1.4623073339462278 -1.988062262535095 -4.4966855049133292 1.1968447566032412 0.66738882660865795 -0.26843376457691187 4.3586595058441171 0.800533026456833 0.57911124825477611 2.3942539691925053 0.1541484743356705 -0.27037015557289118
decision_type=2 2 2 2 2 2 2 2 2 2 2 2 2 2 2 2 2 2 2 2 2 2 2 2 2 2 2 2 2 2 2
left_child=1 2 4 19 6 9 8 10 12 16 15 20 -1 30 -8 27 26 -7 29 -3 -6 -2 -16 -18 -21 -23 -5 -4 -15 -12 -14
right_child=21 3 7 5 11 17 14 -9 -10 -11 18 -13 13 28 22 -17 23 -19 -20 24 -22 25 -24 -25 -26 -27 -28 -29 -30 -31 -32
leaf_value=-0.011884510821827047 0.035627955797051365 0.012633681405154501 -0.084032705481328213 0.040491778825773039 -0.012368272847558716 0.017129343314656296 0.020682634444696067 0.071053321088188973 -0.0072663626101480503 0.06974335521317683 -0.031523120428095422 -0.039246454211802194 -0.0059457691864323262 -0.15551162031232343 -0.061664956307560519 0.011559833003092742 -0.046017444425023618 0.14280764154874576 0.040625877554737143 -0.0053924962328930695 0.055529994636273561 0.043376082565133887 0.0029699384695667263 0.0088231339593389021 -0.074168508010776318 0.24314670878397268 -0.0044809045456920306 -0.0086770872984038346 -0.025823548546022895 0.0053457858330889412 -0.053200386275625247
leaf_weight=229.51516497135162 231.17289623618126 225.81157240271568 398.92832145094872 303.89066660404205 261.97336959838867 261.90796890854836 299.52380114793777 399.53341421484947 307.02443227171898 626.51415127515793 285.24562147259712 313.94534003734589 286.92328295111656 3169.2974744439125 635.9217032790184 222.17721244692802 490.613366574049 953.77114573121071 417.20786160230637 352.55239695310593 421.12161749601364 244.22943222522736 222.98985928297043 269.17805907130241 473.5709952712059 1181.0707783997059 243.84892484545708 235.71836578845978 232.66050899028778 248.66017243266106 386.23220679163933
leaf_count=520 515 508 915 684 595 591 675 895 695 1411 652 715 652 7253 1440 506 1107 2133 949 797 947 548 500 607 1074 2578 550 539 531 569 881
internal_value=0 -0.0521223 -0.110089 0.0702026 -0.145393 0.118166 -0.170972 0.00381854 -0.195594 0.041771 -0.0355717 0.00884784 -0.206326 -0.213939 -0.0459109 -0.0811713 -0.0078345 0.196426 0.0172656 -0.0653523 0.0525966 0.328732 -0.0753655 -0.0459619 -0.0880443 0.34962 0.0409848 -0.109944 -0.231854 -0.0291583 -0.0674102
internal_weight=0 13176.3 8974.6 4201.66 6767.13 3149.72 5770.09 2207.47 4611.65 1934.05 1807.94 997.04 4304.63 4075.11 1158.44 856.824 1307.53 1215.68 951.114 1051.93 683.095 1656.47 858.912 759.791 826.123 1425.3 547.74 634.647 3401.96 533.906 673.155
internal_count=33532 29891 20429 9462 15404 7083 13147 5025 10532 4359 4130 2257 9837 9317 2615 1960 2948 2724 2170 2379 1542 3641 1940 1714 1871 3126 1234 1454 7784 1221 1533
shrinkage=0.65


Tree=4
num_leaves=29
num_cat=0
split_feature=1 36 35 8 3 35 4 53 4 119 7 32 8 32 105 37 79 84 32 7 98 90 36 32 51 12 14 36
split_gain=148.134 58.3689 43.0495 41.2136 30.336 21.0488 16.5777 15.1209 14.7594 10.6436 10.0116 9.20173 8.46671 7.89187 6.60339 5.82422 5.37942 4.82215 3.29786 2.53128 2.32976 1.7219 1.35851 1.07793 0.784287 0.656166 0.495425 0.47556
threshold=6.8185274600982675 3.6916698217391972 3.4845824241638188 -5.1592788696289054 -4.8262610435485831 -3.5481910705566402 -6.374558448791503 4.0187604427337655 -2.0462511777877803 2.1082245111465459 -5.669266700744628 -4.4833502769470206 1.5613660216331484 3.2264102697372441 -0.099145263433456407 -2.575011014938354 2.9262082576751713 0.92903375625610363 1.0199573040008547 5.2225971221923837 0.53150317072868358 2.7480219602584843 0.46898907423019415 0.76014703512191784 0.42206588387489324 10.335961341857912 2.4279187917709355 4.3586595058441171
decision_type=2 2 2 2 2 2 2 2 2 2 2 2 2 2 2 2 2 2 2 2 2 2 2 2 2 2 2 2
left_child=1 2 3 8 12 18 19 9 -1 11 -8 -7 20 16 -14 -3 21 23 -6 -2 -5 25 -15 -4 -11 -13 -10 -17
right_child=6 15 17 4 5 7 10 -9 26 24 -12 13 14 22 -16 27 -18 -19 -20 -21 -22 -23 -24 -25 -26 -27 -28 -29
leaf_value=0.049779191672451227 -0.041385154450134173 0.0015302374805042554 -0.0912898723603877 -0.049666587549496759 0.026693390108712491 0.0065310766354050769 -0.013463482977169294 -0.0050047387581470554 -0.019347142169017739 0.033022773356401296 -0.14902551193509361 0.17586469052806014 -0.0138447076784996 0.051853785635032956 0.078295323084399335 -0.016080235990404378 0.01543530404039138 0.0069190553945477195 -0.039301941786809257 0.015028359422511866 0.0085164457812168283 0.02655163808774022 -0.0046783218573747468 -0.010035377386549912 -0.0094160183292200678 0.032503226816225361 -0.088773270159507145 -0.10517425269745748
leaf_weight=302.13048219680786 686.44712483882904 330.17091399431229 444.42426162958145 554.90731436014175 379.05192309617996 279.00101098418236 378.26621004939079 357.651307284832 474.96147522330284 264.70268163084984 2197.1631426513195 2844.2979689538479 386.61331111192703 379.4517488181591 459.24355804920197 259.51692718267441 224.5926154255867 339.53616073727608 247.32525262236595 331.5757050216198 354.68381354212761 237.51859065890312 230.44776475429535 269.7826426923275 238.45199403166771 258.94492134451866 413.0166227221489 752.69280818104744
leaf_count=679 1556 741 1017 1249 898 631 865 804 1078 585 5075 6240 856 847 1021 574 501 771 578 754 795 522 502 610 526 569 950 1738
internal_value=0 0.0553743 0.0825633 0.10547 0.131621 0.164001 -0.167405 0.183227 -0.0530837 0.196702 -0.206317 0.211722 0.0108646 0.222785 0.0695374 -0.116587 0.241821 -0.0845307 -0.0063699 -0.0362394 -0.0477577 0.251837 0.0565637 -0.117648 0.0263735 0.260766 -0.108553 -0.145211
internal_weight=0 11283.1 9940.74 8886.99 7696.89 5941.44 3593.45 5315.06 1190.11 4957.41 2575.43 4454.25 1755.45 4175.25 845.857 1342.38 3565.35 1053.74 626.377 1018.02 909.591 3340.76 609.9 714.207 503.155 3103.24 887.978 1012.21
internal_count=33532 25282 22229 19831 17124 13203 8250 11727 2707 10923 5940 9812 3921 9181 1877 3053 7832 2398 1476 2310 2044 7331 1349 1627 1111 6809 2028 2312
shrinkage=0.65


Tree=5
num_leaves=38
num_cat=0
split_feature=1 98 96 37 9 14 97 119 38 99 63 99 78 175 56 175 145 87 93 37 19 74 115 169 48 154 119 133 134 2 112 4 72 73 169 156 173
split_gain=52.7486 35.8573 14.1429 13.3808 11.5301 8.98835 8.05737 7.2623 6.60561 5.93665 5.74603 5.13408 4.37947 4.3575 3.76624 3.3174 3.30656 3.0771 3.00419 2.94672 2.41375 2.32244 2.11932 2.07975 1.92365 1.72145 1.67091 1.58077 1.44223 1.25157 1.23427 1.10716 0.721733 0.661051 0.456922 0.261342 0.252844
threshold=1.7142393589019778 -0.99551624059677113 -1.1858277320861814 1.1585822105407717 -0.73910269141197193 1.2977738380432131 1.8270363807678225 2.1859408617019658 3.1643675565719609 0.57459712028503429 0.29082383215427404 2.2239267826080327 -2.2081879377365108 -0.9331364333629607 0.20498614013195041 -0.27336730062961573 0.06674500554800035 0.39686802029609686 1.767132103443146 -3.6613318920135494 3.2162057161331181 1.6561831235885622 -1.6929869055747984 -0.44218257069587702 -1.5270097851753233 -0.24072104692459104 -2.2443958520889278 0.017369411885738376 -1.3133333325386045 -1.8302711248397825 -0.21129512041807172 -7.6632795333862296 0.022395908832550052 -1.3954066634178159 -0.30300760269165034 2.1044157743453984 0.72124832868576061
decision_type=2 2 2 2 2 2 2 2 2 2 2 2 2 2 2 2 2 2 2 2 2 2 2 2 2 2 2 2 2 2 2 2 2 2 2 2 2
left_child=1 3 9 12 5 13 7 11 10 16 31 19 -1 27 36 -5 30 32 24 -4 22 28 -7 -8 -15 -11 -21 -2 -14 -17 -3 -6 -10 -30 -16 -28 -12
right_child=4 2 6 15 8 20 23 -9 17 25 14 -13 21 18 34 29 -18 -19 -20 26 -22 -23 -24 -25 -26 -27 35 -29 33 -31 -32 -33 -34 -35 -36 -37 -38
leaf_value=-0.010654147035083234 -0.011709956023172659 -0.01817616470638676 -0.015735863242841153 0.013769461004074069 0.017877166746962575 -0.0015227720616638862 0.028582024114208585 0.0029148916608243811 0.0068499114430156409 -0.0051388524713649811 0.062879488941687364 -0.0052175581615388125 0.0070710437401241425 0 0.010988752195261213 -0 -0.058108276941032169 0.039237714136290076 0.014226382971997917 -0.013324587549244324 -0.0057553506664843931 0.0009719774786162089 0.069064638406501996 -0.026335945968337954 -0.065021893064886108 0.054520177280707544 -0.12184007600244942 0.043736955711573232 0.013182569794299511 -0.068000394594445263 0.028983858672886033 0.11736866186460579 -0.036712426102996382 0.10261900953159438 -0.024309440731220214 -0.019172068019221479 0.0064091973373547884
leaf_weight=222.33813801407814 226.0734706223011 231.72992607951164 350.47127395868301 369.05034840106964 270.60487201809883 226.4132017493248 223.49962571263313 328.03185963630676 230.79245227575302 270.51483139395714 491.29807090759277 330.23410508036613 226.25845372676849 296.28667533397675 223.53788557648659 220.97859236598015 435.53959041833878 323.08255621790886 232.11561480164528 226.61538141965866 276.27765068411827 234.3093957901001 817.92088338732719 376.92476779222488 689.49889716506004 338.36002591252327 2206.1219112277031 235.90744811296463 233.59830486774445 260.45113375782967 243.61763387918472 1218.990088313818 243.77187937498093 698.69558900594711 285.11739709973335 228.12285915017128 263.31108510494232
leaf_count=502 509 531 803 840 608 505 512 754 514 619 1094 755 511 666 500 502 1001 719 522 519 617 529 1824 863 1558 771 5091 531 529 594 556 2714 543 1577 637 524 588
internal_value=0 -0.0491872 -0.0905969 0.0467178 0.0681068 0.0171399 -0.118203 -0.13455 0.104423 -0.00355657 0.125763 -0.147419 0.0934342 -0.0298623 0.0479927 -0.0428057 -0.0491049 0.0117045 -0.0582523 -0.159501 0.0701493 0.111245 0.0882147 -0.00287079 -0.0787446 0.0557427 -0.171151 0.0358617 0.126399 -0.0798072 0.011634 0.165672 -0.0332662 0.141417 -0.0156567 -0.179643 0.0818502
internal_weight=0 8255.46 5789.78 2465.68 6551 3000.49 4270.02 3669.6 3550.51 1519.76 2752.86 3341.57 1615.2 1679.88 1263.26 850.48 910.887 797.647 1217.9 3011.33 1320.61 1392.86 1044.33 600.424 985.786 608.875 2660.86 461.981 1158.55 481.43 475.348 1489.59 474.564 932.294 508.655 2434.24 754.609
internal_count=33532 18883 13299 5584 14649 6732 9821 8446 7917 3478 6141 7692 3648 3786 2819 1936 2088 1776 2746 6937 2946 3146 2329 1375 2224 1390 6134 1040 2617 1096 1087 3322 1057 2106 1137 5615 1682
shrinkage=0.65


Tree=6
num_leaves=33
num_cat=0
split_feature=36 35 35 32 32 4 73 36 4 86 36 99 32 158 81 96 81 37 5 116 132 40 76 52 25 110 89 42 97 146 169 46
split_gain=141.056 42.1829 36.1021 35.5596 24.7125 20.6743 14.2431 12.2109 8.6012 8.46128 8.13395 6.06147 4.94318 4.79659 5.45711 4.36389 3.71778 3.68672 3.65569 3.35256 3.69582 2.63558 2.58689 2.12141 2.02852 1.7705 1.69552 1.66299 1.42686 1.18707 0.782867 0.417409
threshold=1.9349368810653689 -0.86376130580902089 -0.1965476647019386 0.76014703512191784 1.4298059344291689 5.7692189216613778 -2.6756836175918575 -0.32720252871513361 1.3611655831336977 -0.35643175244331354 5.4639678001403817 -1.2429754734039304 2.8517705202102666 -2.4758995771408077 2.6070706844329838 -1.4255487918853758 1.6781879663467409 -4.0100691318511954 1.6440500617027285 -1.3932678699493406 1.311586380004883 2.8646374940872197 2.8510718345642094 -2.0726722478866573 0.88075494766235363 0.62888503074646007 -0.91598200798034657 -1.8819331526756284 -1.1073334217071531 0.26838418841362005 0.016405284404754642 3.9731296300888066
decision_type=2 2 2 2 2 2 2 2 2 2 2 2 2 2 2 2 2 2 2 2 2 2 2 2 2 2 2 2 2 2 2 2
left_child=1 3 17 8 10 6 25 13 16 26 11 -4 19 -8 22 -10 23 -2 24 -9 28 -19 31 -1 -7 -3 -5 -6 -21 -28 -17 -15
right_child=2 5 4 9 27 18 7 12 15 -11 -12 -13 -14 14 -16 30 -18 21 -20 20 -22 -23 -24 -25 -26 -27 29 -29 -30 -31 -32 -33
leaf_value=-0.0053928715438430058 0.028170395590017994 0.029910109119363419 0.018932466173247446 -0.019431722188428011 0.013019842124482404 -0.03961566835964099 -0.0054642539552076028 0.0034503573192600089 -0.03455107981161501 0.10925771989070493 0.044425813493661079 -0.06639233132236777 0.017770106561213795 -0.14816819237791259 -0.011701272912950172 0 0.0020202383068064944 0.18725272153510544 0.044321908200222367 -0.0091333447265419566 0.0020803459223261355 0.035269740755770308 -0.016120121721450734 -0.088744396630433944 0.014433031107030363 -0.022156177850719352 0.045915187368793894 0.11888582774531208 -0.09130515330647837 -0.0061388868812597237 0.051736321208623391 -0.022731023798056312
leaf_weight=268.27020475268364 303.40835735201836 357.70348849892616 303.85343280434608 240.45451971888542 234.03837257623672 354.72547441720963 214.14330738782883 345.34986194968224 224.00385904312134 918.79719230532646 256.58449953794479 849.21096369624138 331.75260561704636 2084.7040414512157 277.92871564626694 302.81795760989189 311.17183250188828 1236.3376831114292 388.30849373340607 269.55605354905128 278.42303332686424 312.59782496094704 219.2693689763546 856.8445665538311 348.42337149381638 227.91966232657433 310.13439750671387 494.50352835655212 799.43773990869522 238.69890347123146 326.94267809391022 213.02947214245796
leaf_count=628 675 830 676 538 503 822 505 809 512 2037 534 1925 735 4964 651 688 723 2649 870 635 658 676 517 2010 794 529 695 1064 1897 532 748 503
internal_value=0 -0.0583109 0.153184 0.022065 0.0475174 -0.104783 -0.128029 -0.144282 -0.0562248 0.117695 -0.0328107 -0.068403 -0.0624643 -0.184345 -0.194597 0.0196673 -0.0960101 0.242785 0.0166001 -0.0825079 -0.101417 0.263442 -0.208286 -0.117346 -0.0260709 0.0126233 0.0196209 0.158297 -0.122434 0.0459391 0.0575716 -0.218759
internal_weight=0 10708.8 3990.53 3998.14 2138.19 6710.67 5619.22 5033.59 2290.05 1708.09 1409.65 1153.06 2024.52 3009.07 2794.93 853.764 1436.29 1852.34 1091.46 1692.77 1347.42 1548.94 2517 1125.11 703.149 585.623 789.288 728.542 1068.99 548.833 629.761 2297.73
internal_count=33532 24830 8702 9111 4702 15719 13233 11874 5309 3802 3135 2601 4734 7140 6635 1948 3361 4000 2486 3999 3190 3325 5984 2638 1616 1359 1765 1567 2532 1227 1436 5467
shrinkage=0.65


Tree=7
num_leaves=37
num_cat=0
split_feature=1 0 32 35 134 4 31 35 19 41 25 123 35 57 83 30 25 78 106 25 57 24 89 153 147 6 87 120 10 7 7 73 31 32 174 42
split_gain=61.4966 39.4556 19.3162 27.1476 17.7026 12.5107 11.8827 9.50954 7.55871 7.42261 7.35628 6.97699 4.75462 4.69157 4.44814 4.36069 3.98215 3.82279 3.56922 3.45028 2.76046 2.53427 3.12296 2.14656 2.04645 1.78977 1.67016 1.58121 1.13382 0.490317 0.425595 0.383376 0.302413 0.266154 0.0780074 0.0451713
threshold=6.9470486640930185 36.331296920776374 -3.8091058731079097 -2.0552378892898555 0.77102127671241771 -0.3663878589868545 -0.58858516812324513 1.0278373360633852 -2.210919857025146 3.338055014610291 -0.27517774701118464 -1.7807049751281736 -4.9185521602630606 1.4540802836418154 -2.2778416872024532 2.0416868925094609 -3.3806610107421871 0.91860446333885204 -0.79022550582885731 2.6848610639572148 -1.1937253475189207 -2.5069934129714961 -0.40002071857452387 -0.8175871968269347 0.57348647713661205 5.9346930980682382 1.4713118076324465 -0.39659403264522547 -5.0229804515838614 2.0834854841232304 -5.2006967067718497 0.97739031910896312 0.11948969960212709 -0.28693939745426172 0.41899980604648596 0.15143291652202609
decision_type=2 2 2 2 2 2 2 2 2 2 2 2 2 2 2 2 2 2 2 2 2 2 2 2 2 2 2 2 2 2 2 2 2 2 2 2
left_child=1 2 7 12 6 16 8 20 21 11 13 -8 -4 23 -13 31 29 19 32 -10 -1 -5 -23 -6 33 30 -16 -22 -7 -2 -18 -12 -14 -20 -25 -27
right_child=5 -3 3 4 10 28 9 -9 17 -11 15 14 18 -15 26 -17 25 -19 24 -21 27 22 -24 34 -26 35 -28 -29 -30 -31 -32 -33 -34 -35 -36 -37
leaf_value=0.033518544177349903 -0.0086489634753214948 0.14918809078622311 -0.082284102964917727 0.018026100522420724 -0.0050975918543780217 -0.023327233277190006 0.00017834370106461405 -0.099519328529744489 0.076928265285195349 -0.00033750900251039559 -0.068746066953098053 0.0042148698231765716 -0.0023491586499837327 -0.026218171195305718 0.12343475735928848 0.012531497450967143 -0.0044911279749991354 -0.0067401362112453206 -0.004195542898649869 -0.0055161454444817059 0.010598106373665839 0.010240097889148307 -0.062678043553736434 0.070626560767431956 0.0060426358685364973 0.0098522908163488371 0.019956305226632023 -0.04334150597879044 -0.13212332582479303 0.029243712265900248 -0.065043478146786071 -0.0071089714335694021 0.034639052830973661 -0.059973784849014174 0.0082850353005590495 -0.016180964934696222
leaf_weight=252.86484175920486 218.8165482878685 496.7452489733696 501.38901802897453 233.00764712691307 241.21912458539009 300.49784445762634 334.94493162631989 546.49884080886841 704.14357656240463 412.62071195244789 598.1168557703495 235.37343421578407 265.23476207256317 286.17601555585861 1677.6874282956123 371.09088987112045 215.24873569607735 428.64896503090858 228.47029399871826 225.90370091795921 250.50578063726425 255.9664214849472 419.58063796162605 365.84951600432396 350.22113087773323 277.23441684246063 301.10205033421516 322.96718934178352 1011.0368428230286 224.79534059762955 892.3137224316597 256.76080098748207 236.34973925352097 396.83315521478653 235.76923099160194 223.34740003943443
leaf_count=578 517 1033 1207 512 525 732 736 1256 1534 914 1330 519 601 634 3651 815 501 948 515 504 576 565 927 795 790 649 660 743 2547 525 2141 572 535 905 515 525
internal_value=0 0.0299207 0.012425 0.0294843 0.0567528 -0.11695 0.0876147 -0.0845373 0.0244796 0.12642 -0.0143609 0.144412 -0.066097 0.0383631 0.162248 -0.0608728 -0.0493587 0.0658341 -0.0211257 0.0938651 -0.00151114 -0.0378988 -0.0634224 0.0704693 -0.0521419 -0.0703201 0.175896 -0.0379799 -0.183821 0.0226946 -0.0896081 -0.0912522 0.0343476 -0.0772668 0.0930189 -0.00488348
internal_weight=0 11432 10935.3 9562.46 7583.96 3363.29 5228.98 1372.84 2267.25 2961.73 2354.98 2549.11 1978.5 1129.01 2214.16 1225.97 2051.76 1358.7 1477.11 930.047 826.338 908.555 675.547 842.838 975.525 1608.14 1978.79 573.473 1311.53 443.612 1107.56 854.878 501.585 625.303 601.619 500.582
internal_count=33532 25395 24362 21209 16656 8137 11470 3153 4990 6480 5186 5566 4553 2469 4830 2717 4858 2986 3346 2038 1897 2004 1492 1835 2210 3816 4311 1319 3279 1042 2642 1902 1136 1420 1310 1174
shrinkage=0.65


Tree=8
num_leaves=33
num_cat=0
split_feature=35 32 1 32 120 53 85 3 38 89 122 4 74 172 17 99 61 5 169 114 3 62 74 172 123 101 124 35 98 97 1 70
split_gain=120.872 35.1026 33.8728 18.4069 16.5995 17.3024 11.9173 7.88938 7.53622 7.02138 6.35973 6.24442 4.71614 4.38072 4.31596 4.18205 4.13247 4.16938 3.99581 2.99252 2.92771 2.60334 2.27729 2.22618 1.76102 1.74967 1.35437 1.35406 1.3344 0.902403 0.39042 0.219928
threshold=2.2906788587570195 -2.0793353319168086 6.9470486640930185 -1.5160651206970213 1.0298508405685427 3.11443042755127 0.52355757355690014 -2.1944478750228877 2.1124540567398076 1.8607509136199953 1.2386972904205324 -4.4579987525939933 -2.0212861299514766 -1.6269449591636655 0.23625326156616214 -1.2921910881996153 3.3455586433410649 -7.4731814861297599 -0.01658268645405769 1.0000000180025095e-35 -8.800254821777342 -0.60503000020980824 -0.42613510787487024 1.635615408420563 -0.44983661174774164 -0.35945470631122584 1.1896432638168337 4.1267614364624032 -0.46505901217460627 -0.6882641315460204 -7.9774487018585196 2.1464170217514043
decision_type=2 2 2 2 2 2 2 2 2 2 2 2 2 2 2 2 2 2 2 2 2 2 2 2 2 2 2 2 2 2 2 2
left_child=1 6 4 -2 5 9 7 29 13 12 14 19 28 -5 -6 -8 17 -13 21 -4 -14 -9 -7 31 -11 -16 -19 -10 -3 -1 -15 -22
right_child=3 2 11 8 10 22 15 18 27 24 -12 16 20 30 25 -17 -18 26 -20 -21 23 -23 -24 -25 -26 -27 -28 -29 -30 -31 -32 -33
leaf_value=-0.0011683541234540037 0.16862944604527774 0.010347806674337958 0.01435467695375515 -0.0053254768941613127 -0.057440397574734257 0.041435080129305434 -0 0.038004094672458431 -0.031303280776705696 0.014475892050198183 0.038723157490192332 -0.0075290111199709407 -0.017184920863364293 0.012913317540194952 -0.020900519145460091 0.094324344935039439 -0.017431046396360516 0.084243679805690613 -0.061234730695670522 -0.046174709901719062 -0.14446643892936614 -0.02354378507801496 -0.018315827085411011 -0.02729446487063315 -0.038423763175315012 0.031047705298613767 0.0059325449920250191 0.017126330871933791 -0.041353453210331022 0.050857606625583793 0.093972282639487828 -0.03356400537155519
leaf_weight=231.69554409384727 1117.5127556920052 218.87029883265495 443.63552314043045 225.99589356780052 725.08317330479622 233.86405429244041 264.34138584136963 226.34339082241058 287.81634220480919 267.73505821824074 426.63198074698448 288.70158198475838 288.90812802314758 241.31817862391472 243.71355190873146 760.11492168903351 239.73474812507629 650.71073833107948 542.22711992263794 432.1602121591568 2186.7115633189678 311.98926392197609 278.87565740942955 374.66947185993195 375.60225477814674 333.8249851167202 244.52577278017998 233.85540682077408 321.04608604311943 482.61666390299797 875.96007612347603 355.93163615465164
leaf_count=517 2452 504 979 509 1687 536 595 509 656 626 991 629 671 554 567 1693 518 1405 1224 957 5186 702 640 877 876 771 528 526 766 1072 1974 835
internal_value=0 -0.0427819 -0.0730039 0.170599 -0.10782 -0.135994 0.0496382 -0.00443874 0.0782984 -0.155099 -0.0163111 0.0282051 -0.171309 0.110963 -0.0503589 0.118372 0.0641632 0.0854418 -0.0530212 -0.0313622 -0.186446 0.0108426 0.0226404 -0.196561 -0.0289592 0.0137182 0.111092 -0.0168943 -0.0375829 0.060487 0.131291 -0.209633
internal_weight=0 11750.3 8930.94 2982.46 6631.47 4902.21 2819.33 1794.87 1864.95 4389.47 1729.25 2299.47 3746.14 1343.27 1302.62 1024.46 1423.67 1183.94 1080.56 875.796 3206.22 538.333 512.74 2917.31 643.337 577.539 895.237 521.672 539.916 714.312 1117.28 2542.64
internal_count=33532 26861 20549 6671 15533 11517 6312 4024 4219 10341 4016 5016 8839 3037 3025 2288 3080 2562 2435 1936 7569 1211 1176 6898 1502 1338 1933 1182 1270 1589 2528 6021
shrinkage=0.65


Tree=9
num_leaves=35
num_cat=0
split_feature=36 32 35 73 4 35 34 36 1 116 36 172 86 73 35 99 32 32 87 131 111 30 37 88 118 117 35 31 97 36 83 172 124 74
split_gain=92.7433 36.2844 23.0868 16.903 18.1555 14.7523 10.1885 9.56771 8.78708 7.63238 5.99467 5.48545 7.84996 5.3838 3.97809 3.75648 3.00924 2.93867 2.63967 2.01454 2.00719 1.70355 1.6625 1.59439 1.2761 1.20897 1.19483 1.08146 0.837591 0.76908 0.735705 0.7001 0.477915 0.452697
threshold=3.9241325855255131 2.8517705202102666 -3.1119396686553951 -1.6852512359619138 2.4199292659759526 2.7298834323883061 -3.9926744699478145 -1.4762986302375791 5.6104650497436532 -3.0101047754287715 -3.1036577224731441 -2.0059958696365352 3.1920351982116704 -4.233003854751586 0.29959295690059667 0.49644505977630621 -3.7401045560836788 1.7194256186485293 -0.73903411626815785 1.5178890228271487 -0.66913980245590199 -0.19484091550111768 1.6810737848281863 2.2593836784362797 -0.84289416670799244 -0.67325231432914723 4.1267614364624032 -1.2830560803413389 0.90676093101501476 -0.028619065880775448 2.8942627906799321 -2.5617085695266719 -0.034320833161473267 -0.80328348278999318
decision_type=2 2 2 2 2 2 2 2 2 2 2 2 2 2 2 2 2 2 2 2 2 2 2 2 2 2 2 2 2 2 2 2 2 2
left_child=1 2 10 13 9 7 -2 22 14 -5 -1 31 17 -4 20 18 -12 23 -15 -9 -6 -20 25 30 -16 -3 -8 -17 -18 -19 -13 -11 -22 -10
right_child=6 5 3 4 8 -7 26 19 33 11 16 12 -14 15 24 27 28 29 21 -21 32 -23 -24 -25 -26 -27 -28 -29 -30 -31 -32 -33 -34 -35
leaf_value=-0.023348564802922765 0.0046634078859093186 -0.036226301149897201 0.055259099964555573 0.013294141867760366 -0.026023890326635133 -0.041923248876917972 0.15652940786680189 0.10773041967483234 0.058359032792725168 -0.02542481201407517 -0.0042096179041307899 -0.11932593279584282 0.0086746776658101973 0.043249452166322602 -0.0021934639975817512 0.0012994461926691336 0.083182327037644249 -0.036752542854885134 -0.034951223737320167 0.010462720524411115 -0.0030515082374378238 0.015127013653893257 0.032473810397992672 -0.022643441153617327 -0.070202248033206988 0.01056592614475596 0.024813393525998585 -0.053267218042174956 0.0080168493933237411 0.0074412036399124342 -0.016449792694990212 0.013982286316831452 0.038822642966571584 0.004720932408462053
leaf_weight=316.32814994454384 303.38850924372673 226.99976050853729 298.11821156740189 236.83859124779701 266.30377742648125 355.69917702674866 1203.3820869028568 1027.602181583643 258.79158759117126 267.22371736168861 252.30004304647446 2862.3159558773041 230.42620003223419 328.89544871449471 253.93581601977348 242.26195532083511 538.47536572813988 260.80504068732262 311.47239574790001 246.5802329480648 232.9591198861599 367.35213828086853 254.64356100559235 375.05389520525932 529.81427007913589 339.99143794178963 243.501844227314 467.31892946362495 245.96394580602646 222.30333718657494 218.34106495976448 217.74515795707703 242.25113093852997 315.51204967498779
leaf_count=706 644 512 676 560 627 808 2489 2218 575 643 557 7062 548 774 606 573 1145 622 734 531 543 866 575 918 1283 765 508 1122 525 502 522 526 565 702
internal_value=0 -0.0276453 -0.0537526 -0.0721692 -0.0945853 0.0738852 0.195533 0.104749 -0.0116831 -0.126165 0.0561101 -0.134921 -0.146248 0.00813392 -0.0505352 -0.0190981 0.0871708 -0.156208 0.0202971 0.148735 0.00611307 -0.0183199 0.00807312 -0.167498 -0.0881328 -0.0231697 0.223803 -0.0624712 0.109742 -0.0335033 -0.177119 -0.0134848 0.0398132 0.067964
internal_weight=0 12810.6 10359.1 9006.04 6990.62 2451.52 1750.27 2095.82 2099.57 4891.05 1353.07 4654.21 4169.25 2015.42 1525.26 1717.3 1036.74 3938.82 1007.72 1274.18 741.514 678.825 821.635 3455.71 783.75 566.991 1446.88 709.581 784.439 483.108 3080.66 484.969 475.21 574.304
internal_count=33532 29891 24482 21549 16804 5409 3641 4601 4901 11903 2933 11343 10174 4745 3624 4069 2227 9626 2374 2749 1735 1600 1852 8502 1889 1277 2997 1695 1670 1124 7584 1169 1108 1277
shrinkage=0.65


Tree=10
num_leaves=38
num_cat=0
split_feature=0 48 1 4 57 8 1 59 33 15 114 8 1 116 43 43 34 102 148 109 78 147 8 48 10 175 52 126 23 143 25 4 23 78 108 139 65
split_gain=35.7976 23.6134 16.772 12.8581 9.80797 8.93554 8.64826 7.91338 7.90909 6.77284 5.12688 4.44081 3.92801 3.87497 3.8634 3.64117 3.60671 3.50282 3.1932 2.93695 2.89216 2.84588 2.82783 2.06122 1.77633 1.56928 1.44872 1.38085 1.27181 1.25769 1.1626 0.827669 0.66735 0.257842 0.188405 0.0779161 0.0203674
threshold=46.485761642456062 -0.39235021173954004 10.950058460235597 -0.8741827905178069 -0.94102272391319264 -1.9327329397201536 1.5360662341117861 0.83919379115104686 -2.2604801654815669 -0.9256906509399413 2.1850121021270756 -1.9898175001144407 -9.3423376083374006 0.24556462466716769 -0.19152868539094922 -2.2001160383224483 -3.6665333509445186 -1.3835681080818174 -0.97451385855674733 0.34885199368000036 0.20707371830940249 -0.93512484431266774 2.3702830076217656 3.1157240867614751 -5.2831687927246085 -0.55371269583702076 2.160341858863831 -0.41082826256752009 0.30680607259273535 0.15464630722999576 -3.3250323534011836 -3.7704464197158809 -1.9238520264625547 -0.022613100707530972 -1.7181245684623716 0.07768962532281877 0.48795028030872351
decision_type=2 2 2 2 2 2 2 2 2 2 2 2 2 2 2 2 2 2 2 2 2 2 2 2 2 2 2 2 2 2 2 2 2 2 2 2 2
left_child=1 4 3 7 6 15 11 10 19 12 18 -1 -7 27 22 -5 -8 -11 29 28 -19 -13 30 -14 -4 -23 36 -9 -6 -3 -10 -26 -17 -21 -20 -15 -18
right_child=-2 2 24 5 8 9 16 13 14 17 -12 21 23 35 -16 32 26 20 34 33 -22 25 -24 -25 31 -27 -28 -29 -30 -31 -32 -33 -34 -35 -36 -37 -38
leaf_value=-0.020984087186735351 0.12290784057030198 0.033243450487702011 -0.00036803250721236718 0.011154365568993414 0.04037455229042311 0.027111441521452461 0.015238067712140426 -0.0066717073971008815 0 -0.0098043918738477762 -0.0092373447268947455 -0.0079170072407086373 -0.054259578016354677 -0.00064230500201061544 -0.10003305624637719 -0.0061530983278236711 -0.080589524303997184 0.085893169298974295 0.014778361727128604 -0 0.003814295810243539 0.0024591076616312488 0.0090286480176409289 0.0083785927273168567 -0.0099588209137523361 0.076669753351213871 -0.0014049542571130682 0.046081206953529248 -0.0089970004919879693 -0.014670522667921617 -0.05898325277195389 -0.079825438461046061 -0.066832613369937538 -0.045787112899142647 0.099189120891740729 -0.040982357482455822 -0.0098825242046125458
leaf_weight=373.64604783058167 460.45215955376625 287.38201877474785 311.05425226688385 325.78402361273766 276.49138459563255 321.80467495322227 214.61162987351418 262.55253320932388 227.50384375452995 242.91079953312874 236.82069817185402 251.27575778961182 488.72949120402336 254.49994307756424 1473.751263320446 287.09397265315056 383.00115069746971 500.87075951695442 234.26536023616791 236.58243179321289 352.14816492795944 251.74392303824425 415.40907523036003 225.88157021999359 318.59593281149864 457.49535521864891 251.03873136639595 387.09816473722458 287.92860662937164 230.71655094623566 701.01050889492035 454.99931189417839 711.89764484763145 217.67701905965805 1308.4022951424122 241.18860679864883 213.89237859845161
leaf_count=842 935 638 755 751 629 703 522 587 516 549 534 549 1105 567 3454 658 929 1114 524 541 787 550 960 503 757 994 594 865 655 518 1641 1224 1646 503 2885 544 504
internal_value=0 -0.0188766 0.017264 0.0366773 -0.06345 -0.00737297 -0.00881905 0.077075 -0.0930166 0.0318334 0.107304 0.040824 -0.0237859 0.00306241 -0.117988 -0.0633858 -0.0656255 0.0769683 0.121713 -0.00873572 0.100231 0.071171 -0.0502869 -0.0587428 -0.0809259 0.0950304 -0.0892541 0.0461436 0.0331311 0.0219146 -0.0750438 -0.100661 -0.0876125 -0.0527012 0.14264 -0.0475265 -0.108666
internal_weight=0 14217.8 7984.7 6900.05 6233.06 3457.12 2396.7 3442.93 3836.35 2132.35 2297.59 1334.16 1036.42 1145.34 2817.67 1324.78 1062.54 1095.93 2060.77 1018.68 853.019 960.515 1343.92 714.611 1084.65 709.239 847.932 649.651 564.42 518.099 928.514 773.595 998.992 454.259 1542.67 495.689 596.894
internal_count=33532 32597 18214 15478 14383 7816 5484 7662 8899 4761 5099 2935 2311 2563 6571 3055 2549 2450 4565 2328 1901 2093 3117 1608 2736 1544 2027 1452 1284 1156 2157 1981 2304 1044 3409 1111 1433
shrinkage=0.65


Tree=11
num_leaves=34
num_cat=0
split_feature=35 86 32 59 98 3 137 173 81 112 156 79 37 81 37 8 8 32 43 37 172 161 35 35 37 129 111 98 82 70 153 3 98
split_gain=69.6209 31.0005 16.705 18.4911 11.9073 10.9612 9.40612 8.68216 8.53895 6.72664 6.58857 5.49384 4.26621 3.93599 4.13651 3.51371 3.33685 2.98492 2.83773 2.48067 2.31006 2.22744 2.10932 2.08359 1.94489 1.89952 1.86774 1.5761 1.5241 1.47432 0.440464 0.360997 0.219605
threshold=4.1267614364624032 -0.85525473952293385 -2.8649196624755855 2.4321374893188481 0.90132588148117077 -0.75591212511062611 -2.5447943210601802 -1.8751199245452879 0.39269158244133001 1.3090979456901553 1.9955272078514101 -2.7858059406280513 2.3270276784896855 -3.2494788169860835 -4.7661056518554679 3.5024631023406987 -2.2084419727325435 -2.1602338552474971 0.52613431215286266 -0.17077876627445218 0.71822184324264537 -0.66167190670967091 -1.0523993968963621 2.336998820304871 3.3050633668899541 -2.3673248291015621 -0.24764366447925565 0.058071879670023925 1.8895391225814822 0.85049259662628185 0.015504635870456697 2.083168745040894 -0.092755056917667375
decision_type=2 2 2 2 2 2 2 2 2 2 2 2 2 2 2 2 2 2 2 2 2 2 2 2 2 2 2 2 2 2 2 2 2
left_child=1 4 5 6 8 22 30 29 12 17 11 -9 28 -13 -15 19 31 -6 -18 -5 32 -19 -3 25 -2 -16 -12 -21 -1 -8 -4 -10 -7
right_child=24 2 3 15 9 20 7 10 16 -11 26 13 -14 14 23 -17 18 21 -20 27 -22 -23 -24 -25 -26 -27 -28 -29 -30 -31 -32 -33 -34
leaf_value=0.10248489693337287 0.13469238670389055 0.0049302481966324403 -0.0075384050031904971 0.05982535985681655 0.013028356736475693 -0.0045434066135059716 -0.019869428385071081 -0.0035195114882094715 0.050662489598934692 0.041813061004282323 0.024900259476229064 -0.0013592519089071014 0.0062659933184853285 -0.0098220726401843945 -0.014924528336469367 -0.024873442656126777 -0.039252419437060093 0 0.018424490790040854 0.024337977121601913 0.013093978949910181 -0.067265637180296572 0.079414479165823657 -0.021804182305777336 0.016610237976272913 -0.1192989614124233 -0.028776289345415495 -0.027051752354998435 0.0094665145290512842 0.027785915475842325 0.029782788527203483 0.00031674393454224115 -0.056944733532268761
leaf_weight=1019.6403144299984 1111.1197746396065 357.05665647983551 225.80033484101295 441.3284772336483 257.21100533008575 260.60234069824219 391.28521424531937 377.46427085995674 237.14813286066055 277.26711440086365 229.51701581478119 228.92048391699791 418.04133725166321 335.01878407597542 248.7842897772789 286.14343163371086 532.31430250406265 324.41186499595642 396.28881216049194 225.80004948377609 267.53679659962654 644.3540241420269 477.24531927704811 397.06391277909279 231.59273225069046 2692.66837272048 305.10726353526115 241.48169347643852 224.18193846940994 233.06033545732498 219.33522436022758 223.41487491130829 295.28467664122581
leaf_count=2312 2393 788 515 1009 577 574 912 866 527 630 529 528 957 762 583 659 1241 760 914 518 592 1528 1024 893 510 6451 711 559 508 534 503 505 660
internal_value=0 -0.0210924 -0.0553929 -0.0760785 0.0436082 0.0299358 -0.0982983 -0.109527 0.0769578 -0.0256239 -0.123184 -0.135621 0.118682 -0.146197 -0.153773 0.0297898 0.010239 -0.0579925 -0.0247983 0.0573771 -0.043334 -0.0792187 0.0931847 -0.164111 0.190248 -0.174913 -0.00650953 -0.0026643 0.142841 0.00212348 0.0241639 0.0598694 -0.0703604
internal_weight=0 13290.8 8736.5 7078.78 4554.27 1657.73 5884.03 5438.89 3051.03 1503.24 4814.54 4279.92 1661.86 3902.46 3673.54 1194.75 1389.17 1225.98 928.603 908.61 823.424 968.766 834.302 3338.52 1342.71 2941.45 534.624 467.282 1243.82 624.346 445.136 460.563 555.887
internal_count=33532 30629 20170 16532 10459 3638 13787 12769 6964 3495 11323 10083 3777 9217 8689 2745 3187 2865 2155 2086 1826 2288 1812 7927 2903 7034 1240 1077 2820 1446 1018 1032 1234
shrinkage=0.65


Tree=12
num_leaves=38
num_cat=0
split_feature=36 36 85 32 172 35 67 111 68 85 122 85 73 35 153 88 99 79 71 32 170 25 36 14 104 55 35 97 46 62 55 103 59 32 115 142 108
split_gain=62.5364 31.2667 16.5766 14.7272 10.4115 9.82075 9.23034 8.04746 7.4927 6.42665 5.98059 4.5833 4.51541 4.60485 5.15631 4.20899 3.62667 3.51774 3.24458 2.89458 2.78963 2.74733 2.56081 2.46904 2.10059 1.87164 1.72164 1.63874 1.42308 1.2437 1.17357 1.16583 1.15303 1.14722 0.874596 0.792937 0.695533
threshold=5.157686948776246 -0.20461251586675641 -1.7131937742233274 2.6886333227157597 -1.5488130450248716 0.50438413023948681 -3.1667248010635372 -0.24764366447925565 2.4813004732131962 -1.5124300122261045 1.3068374395370486 1.9023886322975161 -3.1312931776046748 -4.1379244327545157 -2.3002443313598628 1.6540597677230837 1.6637443304061892 -0.71309614181518544 -0.79841405153274525 0.35680699348449713 -1.3608941435813902 5.4667241573333749 6.8094840049743661 -2.9221688508987422 0.91660213470458995 -2.1879779100418086 1.4510711431503298 -0.48969441652297968 4.038581609725953 0.09849815815687181 -0.072571951895952211 -0.20999666303396222 -0.52461078763008107 -0.35105846822261805 -2.0473922491073604 1.2781979441642763 -0.27456836402416224
decision_type=2 2 2 2 2 2 2 2 2 2 2 2 2 2 2 2 2 2 2 2 2 2 2 2 2 2 2 2 2 2 2 2 2 2 2 2 2
left_child=1 2 17 5 24 7 -6 18 12 32 16 26 -8 -14 -15 20 35 36 30 27 -11 28 -2 -19 33 -22 -5 -20 34 -25 -3 -10 -7 -4 -16 -9 -1
right_child=22 3 4 11 6 9 8 10 31 15 -12 -13 13 14 21 -17 -18 23 19 -21 25 -23 -24 29 -26 -27 -28 -29 -30 -31 -32 -33 -34 -35 -36 -37 -38
leaf_value=0.0011990692411667674 0.03875580751212121 -0.0094908744793516069 -0.0080144222351837061 0.099635888839148035 0.012980196741229438 -0.0094148164337313021 0 0.088217351121379892 0.020233819275802027 0.0026140885664356381 -0.012053649845606855 -0.0016618701545176818 -0.0046132739244522103 -0.00067630485453674689 -0.020134358765789916 0.011269244616118054 -0.003236633469480383 0.026938200096598565 0.00078941585505412214 0.012068943459246065 -0.0014318989400060982 -0.01282025794858861 0.1614235265087785 -0.045248955734016112 -0.026258138246970965 -0.080052692813015219 0.010908794338096418 -0.067337244608169353 -0.015051745325699695 0.0044503058285324543 0.040465873018572282 -0.024372061042057695 0.039872811868353369 0.040805390319933715 -0.13202962041805036 0.0087371083933889988 0.061446580842985772
leaf_weight=224.32729822397232 505.36727225780487 230.28510472178459 246.16059970855713 789.71935123205185 396.00888139009476 223.32640546560287 238.6351620554924 908.52255010604858 253.07754436135292 259.15989500284195 402.8626344203949 300.52662706375122 289.46599185466766 223.94956973195076 238.27177280187607 341.02885037660599 245.84670075774193 247.89858081936836 220.40787255764008 314.68433892726898 220.94583994150162 258.28675979375839 524.77695351839066 348.87585482001305 272.87568500638008 950.83944997191429 280.18527919054031 362.61848309636116 214.15127524733543 335.12995520234108 250.96155893802643 303.98943707346916 306.81471413373947 351.53703367710114 1861.5249744653702 222.17376267910004 261.57078912854195
leaf_count=523 1036 525 609 1651 941 523 545 2064 603 619 914 636 628 547 591 800 565 581 508 707 527 620 1072 816 649 2308 608 843 522 784 570 733 722 817 4708 505 612
internal_value=0 -0.0171999 -0.0649094 0.0296482 -0.0901382 0.00292941 -0.109216 0.0381446 -0.123305 -0.0434173 0.0772241 0.109428 -0.139935 -0.149457 -0.160974 -0.070099 0.103548 0.0258122 -0.0181003 -0.0493293 -0.0906657 -0.172422 0.20127 -0.0138685 0.00794405 -0.107689 0.133265 -0.0792892 -0.183341 -0.0430715 0.0348449 -0.00532669 0.0361773 0.0386553 -0.192569 0.122656 0.0737893
internal_weight=0 13396.6 6565.74 6830.91 5147.93 5460.48 4277.36 3158.36 3881.35 2302.12 1779.41 1370.43 3324.29 3085.65 2796.18 1771.97 1376.54 1417.8 1378.96 897.711 1430.95 2572.23 1030.14 931.904 870.573 1171.79 1069.9 583.026 2313.95 684.006 481.247 557.067 530.141 597.698 2099.8 1130.7 485.898
internal_count=33532 31424 15829 15595 12513 12700 10438 7201 9497 5499 4048 2895 8161 7616 6988 4254 3134 3316 3153 2058 3454 6441 2108 2181 2075 2835 2259 1351 5821 1600 1095 1336 1245 1426 5299 2569 1135
shrinkage=0.65


Tree=13
num_leaves=38
num_cat=0
split_feature=3 14 1 48 36 8 147 85 41 108 83 39 93 49 43 96 14 171 25 94 25 84 7 120 158 20 96 158 98 7 3 30 119 104 68 7 41
split_gain=42.2658 15.0111 13.9399 13.6395 13.4512 10.0923 8.82215 6.85957 8.19076 6.23091 6.51703 6.21188 6.80993 4.8023 3.92002 3.20189 4.25858 2.93899 2.86817 2.40866 2.15468 2.07556 2.06251 2.02522 2.00263 2.00002 1.93287 1.44077 1.33833 1.08095 0.933053 0.927684 0.811286 0.658155 0.486185 0.396143 0.187077
threshold=-1.0249651074409483 3.0407290458679204 13.04562568664551 0.70114147663116466 -4.0087790489196768 -7.2436218261718741 -1.966408312320709 -1.7131937742233274 2.9969897270202641 2.8923585414886479 2.3341339826583867 -1.6591171622276304 0.3577264547348023 -1.2490769624710081 -2.6154828071594234 1.8840014338493349 -5.067643165588378 0.91664066910743724 -3.8470171689987178 -0.32571868598461146 -0.07603974267840384 0.19609408080577853 -6.8907785415649405 -0.32220447063446039 0.13116838037967685 -1.5944010019302366 1.0750439763069155 1.775040924549103 -0.13224193453788755 7.4470529556274423 4.257552146911622 -4.6319451332092276 0.47346328198909765 1.1244726181030276 -0.13566809892654416 -1.4502209424972532 -0.028933256864547726
decision_type=2 2 2 2 2 2 2 2 2 2 2 2 2 2 2 2 2 2 2 2 2 2 2 2 2 2 2 2 2 2 2 2 2 2 2 2 2
left_child=1 3 4 14 24 13 25 19 9 10 15 21 26 -6 20 16 -9 22 -3 30 -1 -5 -16 -14 -2 -7 -13 -18 -10 -24 -8 -20 -21 -4 -17 -19 -27
right_child=2 18 33 11 5 6 7 8 28 -11 -12 12 23 -15 17 34 27 35 31 32 -22 -23 29 -25 -26 36 -28 -29 -30 -31 -32 -33 -34 -35 -36 -37 -38
leaf_value=0.030571498691581656 0.0037332173212908746 -0.0075962706363219999 -0.058480754436300561 -0.048374988282389779 0.027095316767240901 0.022202765589457368 -0.037501182201195596 0.011547193274739978 -0.022298598591293416 -0.0082171372707480362 0.0030313447832322551 0.08050666714322062 0.019591512325913295 -0.052970146666656108 -0.00078995758940595274 0.033409922920041482 0.12657120971287303 0.012323684971070363 -0.012371647307128104 0.043122700044228662 -0.026894569702175228 0.011347734528331823 -0.085698662199979514 -0.034685675625218078 -0.056476081440280226 -0.041862374366603936 0.001850141035957057 0.018103896999626071 0.02330088421696885 -0.0070944824772888352 0.0088147682699129259 -0.10749820653409349 -0.0031673813773457223 -0 -0.0060526601822073235 -0.020361755204208718 -0
leaf_weight=287.11113986372948 353.52484080195427 284.07509648799896 417.61210688948631 327.19822895526886 248.56077206134796 225.32877597212791 220.40061777830124 305.18973544239998 301.17682504653931 226.81130388379097 388.83737054467201 633.18979665637016 290.45722076296806 388.2536932528019 227.67960438132286 232.64274993538857 1931.0682067275047 222.6613150537014 213.52057567238808 405.69993934035301 216.42379772663116 264.20051029324532 1231.3266845941544 337.26740562915802 359.19128090143204 238.79006108641624 241.76300063729286 250.64296707510948 332.04287266731262 223.83341574668884 235.16920381784439 1204.6243152618408 259.24597370624542 195.23075902462006 223.47881659865379 396.00122827291489 227.02033907175064
leaf_count=654 824 668 1074 749 585 513 500 665 684 508 865 1417 655 939 518 523 4229 524 523 903 503 597 2883 765 839 537 559 560 743 520 532 2949 579 505 503 924 514
internal_value=0 -0.0650359 0.0406916 -0.0306539 0.0539327 0.0684311 0.0811726 0.0945738 0.1124 0.129684 0.139976 0.0281818 0.0596927 -0.0350536 -0.072794 0.154684 0.169281 -0.088769 -0.137383 0.0145629 0.0064072 -0.0423279 -0.108372 -0.0172334 -0.0551929 -0.0177079 0.103142 0.183679 0.00116056 -0.120506 -0.0310578 -0.153443 0.0466543 -0.0739506 0.0304413 -0.0119209 -0.0482667
internal_weight=0 6601.33 7965.92 4899.11 7353.08 6640.36 6003.55 5312.41 4191.89 3558.67 3331.86 2094.08 1502.68 636.814 2805.04 2943.02 2486.9 2301.5 1702.22 1120.52 503.535 591.399 1682.84 627.725 712.716 691.139 874.953 2181.71 633.22 1455.16 455.57 1418.14 664.946 612.843 456.122 618.663 465.81
internal_count=33532 15408 18124 11268 16545 14882 13358 11794 9280 7853 7345 4742 3396 1524 6526 6480 5454 5369 4140 2514 1157 1346 3921 1420 1663 1564 1976 4789 1427 3403 1032 3472 1482 1579 1026 1448 1051
shrinkage=0.65


Tree=14
num_leaves=34
num_cat=0
split_feature=36 36 85 122 131 37 37 110 123 158 0 85 142 36 153 32 13 86 42 32 156 149 116 87 88 173 140 123 32 165 60 16 108
split_gain=103.673 24.8879 14.1078 11.7459 9.84484 9.13295 8.50023 8.24772 6.97712 5.75371 5.68755 5.26567 5.01341 4.73823 4.66171 4.62935 4.05738 3.43384 2.96685 2.63782 2.49895 2.40471 2.25037 1.9518 1.63443 1.58803 1.43958 1.38941 1.38503 1.35797 1.02311 0.919199 0.729188
threshold=-2.6109085083007808 1.2615945339202883 1.00159227848053 1.0619240403175356 -2.3984383344650264 2.6911051273345952 -0.17077876627445218 2.2420512437820439 -1.1999289393424986 1.7141059637069704 2.2900531291961674 -2.8612174987792964 2.2791240215301518 -4.0087790489196768 -0.29052077233791346 0.95711019635200512 3.5122730731964116 -1.4646644592285154 -3.8325718641281123 -1.3482728600502012 0.69436651468276989 -1.7184401154518125 1.7468039989471438 -1.5349792242050169 -0.43728366494178766 -1.9391862154006956 1.0446352362632754 -0.54122498631477345 -0.028758436441421505 -1.3958843350410459 0.34692543745040899 0.88011381030082714 -0.55047729611396778
decision_type=2 2 2 2 2 2 2 2 2 2 2 2 2 2 2 2 2 2 2 2 2 2 2 2 2 2 2 2 2 2 2 2 2
left_child=4 2 6 7 -1 10 14 9 24 12 15 -6 22 -13 19 -4 26 -5 -10 -2 31 -20 25 -15 -8 -3 -16 -17 -7 -23 -11 -19 -21
right_child=1 3 5 17 11 28 8 -9 18 30 -12 13 -14 23 16 27 -18 20 21 32 -22 29 -24 -25 -26 -27 -28 -29 -30 -31 -32 -33 -34
leaf_value=-0.0059171586655954447 0.016593628626182806 -0.014831396860643551 0.1005827952948472 0.033562853498852886 0.0059804082370544269 0.0096090442243215342 0.036732032556285724 0.0060834988374864349 0.0047396098344619185 -0.027883316895070304 -0.0082829586392916561 0.15107639447463059 -0 -0.0011837822042116205 0.062157932324166137 0.033327183284829469 -0.018335289032741266 -0.055447223770403932 0 0 0.01390464187911556 -0.0070800292159335816 -0.020136104910966412 0.065267116634498717 -0.013818464961612828 -0.12501071910778297 -0.00060035874816906235 -0.015854660782200602 -0.044111828465317561 -0.085596909015108177 0.016864562618527867 0.00035085007691682143 -0.051902184187742284
leaf_weight=288.93537563085556 349.87446522712708 219.67984780669212 777.52414441108704 340.70793029665947 259.98106074333191 227.76533997058868 234.12881955504417 380.72318920493126 228.94439506530762 237.79243469238281 339.18387332558632 1325.06105068326 219.2442843914032 242.41449776291847 690.297437697649 213.84764671325684 294.42343056201935 396.91561678051949 222.07514801621437 235.86528521776199 335.71703347563744 247.62654140591621 357.8764511346817 926.85236954689026 382.92486548423767 1765.3707717955112 220.55315232276917 285.00957745313644 240.3100577890873 1220.0277882814407 211.55808198451996 214.23313030600548 395.606540620327
leaf_count=623 770 518 1740 797 562 511 541 899 530 565 786 2820 518 533 1578 501 680 963 509 554 798 572 859 2017 894 4309 503 677 576 2886 501 515 927
internal_value=0 -0.0405482 -0.000381092 -0.0938206 0.156264 0.0620053 -0.0309794 -0.122282 -0.0671599 -0.138305 0.0936784 0.172812 -0.155064 0.185663 0.0147371 0.118629 0.0514261 -0.00641331 -0.0934256 -0.0315546 -0.0376296 -0.106255 -0.167135 0.0837998 0.0183833 -0.181382 0.0787041 0.0156874 -0.038712 -0.11892 -0.0125104 -0.0664564 -0.0616536
internal_weight=0 11485.8 6805.99 4679.82 3043.24 2083.64 4722.35 3392.25 2535.73 3011.52 1615.57 2754.31 2562.17 2494.33 2186.62 1276.38 1205.27 1287.57 1918.67 981.346 946.866 1689.73 2342.93 1169.27 617.054 1985.05 910.851 498.857 468.075 1467.65 449.351 611.149 631.472
internal_count=33532 26977 15735 11242 6555 4791 10944 8169 5932 7270 3704 5932 6204 5370 5012 2918 2761 3073 4497 2251 2276 3967 5686 2550 1435 4827 2081 1178 1087 3458 1066 1478 1481
shrinkage=0.65


Tree=15
num_leaves=37
num_cat=0
split_feature=32 36 96 72 86 172 36 99 14 85 171 68 154 35 111 101 37 63 29 40 167 157 72 54 73 40 44 106 106 110 173 139 129 34 71 34
split_gain=39.1648 25.0973 20.8442 10.6443 12.7159 11.6033 9.09592 7.21234 6.0287 5.5847 5.45396 5.13127 4.75562 4.21562 4.39066 3.95629 3.41098 3.07404 2.9821 2.8005 2.50066 2.4071 2.26486 2.15391 2.14072 1.9752 1.77782 1.76305 1.52944 1.43885 1.03596 0.66082 0.486278 0.251311 0.140258 0.0881071
threshold=5.5632548332214364 6.8094840049743661 1.3141849637031557 1.8468481898307803 1.1243789792060854 -1.8998203873634336 -2.6623028516769405 0.32742841541767126 4.5720007419586191 -2.604307889938354 -0.485751062631607 0.26664379239082342 -1.6394317746162412 3.4046205282211308 -1.6467602849006651 -1.1407105326652525 4.8598885536193857 -1.4470256567001341 2.5724073648452763 0.55879539251327526 1.0402529239654543 0.94059801101684581 0.21726928651332858 2.6828389167785649 0.72017204761505138 1.4201771020889284 0.82618978619575512 2.189629435539246 -0.99808582663536061 -1.1493796706199644 -0.62073153257369984 -0.12653675675392148 0.2498123496770859 0.034799471497535713 0.24509662389755252 -2.7224984169006343
decision_type=2 2 2 2 2 2 2 2 2 2 2 2 2 2 2 2 2 2 2 2 2 2 2 2 2 2 2 2 2 2 2 2 2 2 2 2
left_child=1 2 3 4 5 26 -2 13 9 -7 25 15 -12 14 -4 -5 18 -14 27 22 30 -17 -9 35 31 34 -1 -11 -20 -19 -13 -10 -21 -30 -6 -16
right_child=6 -3 7 11 10 8 -8 19 24 16 12 20 17 -15 23 21 -18 29 28 32 -22 -23 -24 -25 -26 -27 -28 -29 33 -31 -32 -33 -34 -35 -36 -37
leaf_value=0.037066004060351543 -0.0022550372185993926 0.10191984546039153 -0.0041024481353005345 0.026871090741735239 0.064752143579156596 0.0010631027430690961 0.13288828156744867 -0.014197845754471857 0.034924033520947841 -0.10702943026735939 0.033472153798918929 0.0028743235791042214 0.011368233879022381 -0.013918699596540162 0.013863886971236085 -0.056302775561126679 -0.0037419497961001841 2.207011986345825e-05 0.011440616996795669 -0.00083883382064115755 -0.0086526382458601767 0.009580975293283861 0.040574296154309061 0.0019045388234385301 -0.034228872936858432 -0.0069872599343207206 -0.0158718776964271 -0.013685397674724813 -0.053092683852152621 -0.064771995283860559 0.067740201406754547 -0.0072255657318645141 -0.046556862066489325 -0.003997745353748805 0.0061867143012613382 0.093055961774847845
leaf_weight=382.97259274125099 245.9856478869915 428.24904561042786 328.07846516370773 285.02785414457321 280.92662832140923 366.05977195501328 719.46969383955002 405.17871820926666 218.93341180682182 2335.1156999915838 216.96411404013634 261.17518919706345 294.83942323923111 232.73765808343887 238.08283731341362 527.98475450277328 299.19876682758331 213.33425658941269 207.05764752626419 340.38412666320801 271.60044714808464 224.81408229470253 393.10775119066238 221.07453548908234 260.61580616235733 251.75162619352341 252.49916344881058 274.83512124419212 271.50929637253284 652.11932507157326 453.50704753398895 233.93902483582497 283.31938016414642 293.7798378765583 231.56668472290039 880.17906919121742
leaf_count=895 580 876 753 672 651 857 1505 953 515 5769 502 619 685 572 548 1256 715 505 501 791 636 530 919 508 617 587 589 657 672 1554 1065 551 655 716 539 2017
internal_value=0 -0.010944 -0.0214785 -0.0451128 -0.0620977 -0.0868045 0.166008 0.0436554 -0.103151 -0.117381 0.00387799 0.0175311 -0.0325452 0.0792868 0.0953278 -0.0284564 -0.128392 -0.0585636 -0.137105 -0.0107717 0.0605756 -0.0611502 0.0261644 0.116273 -0.00776701 0.0584384 0.0269308 -0.154985 -0.0420334 -0.0824503 0.0839811 0.03 -0.0503807 -0.0630485 0.0828848 0.130998
internal_weight=0 13312.5 12884.3 9562.13 7538.02 5396.52 965.455 3322.14 4761.04 4047.56 2141.5 2024.11 1377.26 1900.15 1667.41 1037.83 3681.5 1160.29 3382.3 1421.99 986.283 752.799 798.286 1339.34 713.488 764.245 635.472 2609.95 772.347 865.454 714.682 452.872 623.704 565.289 512.493 1118.26
internal_count=33532 31447 30571 22855 18077 13054 2085 7716 11570 9887 5023 4778 3246 4398 3826 2458 9030 2744 8315 3318 2320 1786 1872 3073 1683 1777 1484 6426 1889 2059 1684 1066 1446 1388 1190 2565
shrinkage=0.65


Tree=16
num_leaves=34
num_cat=0
split_feature=3 48 82 169 112 92 167 97 1 72 3 100 3 100 105 150 39 95 9 98 57 61 109 101 72 28 3 3 1 141 64 57 127
split_gain=28.5408 14.5095 11.3803 9.21423 8.007 6.47581 5.67289 5.2688 5.15551 4.99493 4.93113 4.54147 4.19229 4.1696 3.50124 3.0224 3.01569 2.4738 2.41091 2.39083 2.28666 2.27633 2.19402 2.12014 1.33457 1.2746 1.3659 1.11057 1.06256 1.01823 0.963453 1.64549 0.544269
threshold=3.3869609832763676 0.57664707303047191 0.28045336902141577 -1.6961783170700071 0.46160687506198889 -2.0657411813735957 -2.0010993480682369 1.8601071834564211 2.5983388423919682 -2.4468799829483028 -7.8538837432861319 0.63264107704162609 1.2266987562179568 0.97882807254791271 -1.3512796163558958 -1.9704238176345823 2.19580090045929 0.3895294070243836 1.3636446595191958 -0.11233232170343398 -0.47663156688213343 -2.5936754941940303 1.3377450108528139 1.3110838532447817 -0.8693535029888152 -0.37091641128063196 -4.116734266281127 1.3834456205368044 2.1924713850021367 -0.25915324687957758 2.5894705057144169 2.3346406221389775 -0.20103173702955243
decision_type=2 2 2 2 2 2 2 2 2 2 2 2 2 2 2 2 2 2 2 2 2 2 2 2 2 2 2 2 2 2 2 2 2
left_child=1 4 11 18 8 20 -7 9 13 -8 -4 25 14 16 -12 -11 24 32 -2 -15 -5 -6 -16 -10 -1 26 -3 -23 -9 -26 31 -17 -13
right_child=3 2 10 5 21 6 7 28 23 15 12 17 -14 19 22 30 -18 -19 -20 -21 -22 27 -24 -25 29 -27 -28 -29 -30 -31 -32 -33 -34
leaf_value=-0.057751063746510463 0.0085180231790048053 -0.032994973273140049 -0.01742419311920694 0.023116350322090046 -0.0074989957911702531 -0.011968293276155628 0.00038991052394907519 0.022664887777374264 -0.060778527142134255 0.0038285022535286218 -0.0039316747842950642 -0.001184229520003442 -0.0086143170390386367 -0.0077188878030860887 0.088303344821371019 0.11418412781596457 0.021059782297383152 -0.022101710779523134 -0.052524785131517628 0.054414157293573892 -0.034595701822095787 -0.09406387309325645 0.0023165390692074109 0 0.01655333084508992 -0.058275263710473806 0.013271105901995216 -0.0089038284357398998 -0.020803679283192 -0.024262674219642368 0.014191799652345937 0.015200293012033704 0.044135939788208178
leaf_weight=354.74738863110542 428.28838753700256 230.30983981490135 405.85612165927887 243.98601016402245 319.64453375339508 327.21501937508583 353.02893897891045 304.06621590256691 1046.2535826563835 238.66696190834045 246.50212788581848 232.76833319664001 339.94414842128754 337.49321356415749 852.09766188263893 1308.5098015666008 322.20537820458412 349.75292524695396 232.64452973008156 386.16923221945763 344.19101613759995 1367.4411572217941 219.74617877602577 352.51299919188023 311.40780735015869 897.4460284113884 439.70941242575645 219.04760068655014 235.1332880705595 385.598428606987 252.18236839771271 269.10706022381783 317.71882671117783
leaf_count=809 994 539 956 559 775 753 817 678 2610 548 564 537 752 760 1901 2898 721 818 553 862 812 3305 502 888 698 2082 986 501 566 871 578 616 723
internal_value=0 -0.0376725 0.00485011 0.0553415 -0.0712415 0.0736588 0.0899477 0.103035 -0.034348 0.121007 0.0552446 -0.0389006 0.0771896 0.000512748 0.0986065 0.137517 -0.0309955 0.0158242 -0.0378566 0.0504573 -0.0159464 -0.119708 0.118182 -0.0750012 -0.0548579 -0.0674718 -0.0134192 -0.133899 0.0034133 -0.00937246 0.149856 0.160762 0.0495302
internal_weight=0 9934.37 4531.85 4537.02 5402.52 3876.09 3287.91 2960.69 3496.39 2421.5 2064.15 2467.71 1658.29 2097.62 1318.35 2068.47 1373.96 900.24 660.933 723.662 588.177 1906.13 1071.84 1398.77 1051.75 1567.47 670.019 1586.49 539.2 697.006 1829.8 1577.62 550.487
internal_count=33532 23160 10360 10372 12800 8825 7454 6701 8219 5457 4675 5685 3719 4721 2967 4640 3099 2078 1547 1622 1371 4581 2403 3498 2378 3607 1525 3806 1244 1569 4092 3514 1260
shrinkage=0.65


Tree=17
num_leaves=40
num_cat=0
split_feature=36 35 86 59 32 81 112 85 108 32 35 62 134 32 81 36 123 138 98 69 106 83 35 81 38 172 69 9 59 86 172 121 1 116 55 121 125 97 100
split_gain=49.1863 19.5121 16.4867 13.108 12.5711 9.20449 7.86728 7.48093 7.35863 6.33184 4.3708 4.26653 4.00358 3.62486 6.14127 3.44928 3.30999 3.2706 3.18457 2.97382 3.04678 2.8172 2.42759 2.20071 2.16134 2.1422 2.11078 1.81001 1.93359 1.76227 1.73159 1.36877 1.36857 1.00677 1.00144 0.997725 0.773068 0.565786 0.414373
threshold=-2.3822746276855464 2.0471471548080449 -2.2323976755142207 2.5782080888748173 -1.3482728600502012 -3.654783964157104 1.0350015759468081 0.97747215628623974 -2.6915999650955196 -1.6961259841918943 3.6506611108779912 -0.94892039895057667 -0.29203747212886805 3.1109497547149663 1.7654490470886233 -0.56578350067138661 0.21965555846691134 -0.67979410290718068 -0.19287180155515668 2.7166178226470952 -2.1527360677719112 -2.3209656476974483 -1.4976146817207334 -1.2831323146820066 -1.3160621523857114 -0.9474954605102538 0.55824336409568798 0.91845434904098522 -0.2167536988854408 0.77963030338287365 0.91461732983589183 0.65173786878585827 0.087580237537622466 -0.018554210662841793 -2.9108073711395259 0.40232485532760626 1.4156619310379031 -0.48969441652297968 0.85635027289390575
decision_type=2 2 2 2 2 2 2 2 2 2 2 2 2 2 2 2 2 2 2 2 2 2 2 2 2 2 2 2 2 2 2 2 2 2 2 2 2 2 2
left_child=1 9 13 4 7 -6 8 10 -7 29 11 32 24 14 36 17 18 -10 -11 20 -17 -22 -9 -13 -5 -14 -18 28 -8 -1 -25 -19 -4 -27 -23 -20 38 -24 -2
right_child=2 -3 3 12 5 6 27 22 15 16 -12 23 25 -15 -16 19 26 31 35 -21 21 34 37 30 -26 33 -28 -29 -30 -31 -32 -33 -34 -35 -36 -37 -38 -39 -40
leaf_value=0.081996908730438037 0.090281951985732328 0.13298799832881808 -0.019197062236310538 0.021623095107083358 0.028451711195336866 0.011431875123076958 -0.045488562055628276 -0.0099142841461259349 0.013741991043043217 0.051846169503243132 0.028370883337334205 0 -0.0050791263371847573 -0.016749389608948562 -0.016766816429349591 -0.010583367076218948 -0.043947205200344376 -0.06376885147686967 -0.026975462349792541 -0.010026840779426087 -0.010505505908399668 -0.018414500828210729 0.0041208121784207519 -0.080670476713753325 -0.034594960014302928 0.0061431942687007442 0.010866405310691621 0.020196243667264364 0.01183984724889421 0.0031535793212171363 -0.0020056047333772476 0.00030088438948968542 0.027074179159222268 0.075786431162194967 -0.13023664862309747 0.015871075292865709 0.0068356117246249574 0.067160396991387844 0.010702827342596602
leaf_weight=451.2934198975563 500.61863654851913 859.98515099287033 286.07595601677895 218.4481266438961 259.47208586335182 269.50577810406685 377.14750918745995 230.42857287824154 342.3826869726181 434.82349622249603 261.13995376229286 276.91230085492134 250.40145382285118 266.60275787115097 303.2184873521328 259.06037184596062 486.50628083944321 455.10817337036133 328.39604955911636 282.27497956156731 220.31336885690689 227.62686330080032 229.94193896651268 662.96068347990513 436.7321560382843 286.0066077709198 355.6678641140461 368.78636685013771 253.49348923563957 250.88313522934914 223.09821581840515 215.04238185286522 341.27465891838074 315.96356666088104 1606.2295046597719 234.39755970239639 230.44495320320129 342.07351741194725 224.80457064509392
leaf_count=929 1165 1764 693 511 606 636 927 536 814 938 548 647 575 648 703 641 1060 1091 718 692 544 575 514 1568 1017 659 775 873 624 522 522 510 764 724 4178 512 530 758 521
internal_value=0 0.100811 -0.030732 -0.0466478 -0.062703 -0.0909515 -0.101274 -0.00630492 -0.120542 0.0408403 -0.0385211 -0.0570887 0.0329627 0.0563087 0.0764156 -0.131881 0.00215804 -0.0472824 0.037636 -0.153143 -0.164531 -0.176771 0.0599492 -0.0864625 -0.0217094 0.0689547 -0.0375983 -0.0120447 -0.0405756 0.101996 -0.105361 -0.0777491 0.00943588 0.0918072 -0.188889 -0.0143548 0.107504 0.0847864 0.122068
internal_weight=0 3401.95 11023.6 9497.9 7990.35 5136.44 4876.97 2853.91 3877.54 2541.97 2051.46 1790.32 1507.55 1525.69 1259.09 3608.04 1839.79 1012.53 997.617 2595.51 2313.23 2054.17 802.444 1162.97 655.18 852.372 842.174 999.427 630.641 702.177 886.059 670.151 627.351 601.97 1833.86 562.794 955.868 572.015 725.423
internal_count=33532 7218 26314 22747 19261 12711 12105 6550 9681 5454 4742 4194 3486 3567 2919 9045 4003 2415 2168 6630 5938 5297 1808 2737 1528 1958 1835 2424 1551 1451 2090 1601 1457 1383 4753 1230 2216 1272 1686
shrinkage=0.65


Tree=18
num_leaves=37
num_cat=0
split_feature=35 34 37 32 85 4 32 35 117 97 152 168 81 157 2 122 3 52 87 86 148 172 33 88 31 161 153 34 62 149 85 168 97 37 28 97
split_gain=24.3141 18.7566 11.876 8.78092 8.10804 7.41083 6.08021 5.59658 5.0473 4.97114 4.91239 3.9571 3.7673 3.55118 3.48554 3.41667 2.93621 2.91032 2.8553 2.88942 2.58232 2.96404 2.23458 1.71027 1.49938 1.43592 1.33759 1.07282 0.878296 0.829324 0.573932 0.539424 0.510025 0.473436 0.0550541 0.0250015
threshold=-5.0689027309417716 0.87700647115707409 0.56195509433746349 2.6411964893341069 -1.7761163711547849 2.4199292659759526 3.1645933389663701 0.049589149653911598 2.4248204231262211 -2.2536584138870235 -0.47219622135162348 -1.7184905409812925 2.9149696826934819 -0.31872405111789698 2.9330947399139409 -2.3615252971649165 5.0651497840881357 -2.2703872919082637 1.8352665305137636 1.6764435172080996 1.5241976976394656 -0.17060786485671994 -0.76483961939811695 1.0000000180025095e-35 -0.33939403295516962 0.31963415443897253 -0.41943965852260584 -3.2484744787216182 -0.89206346869468678 -0.31567040085792536 0.37922701239585882 -0.66841852664947499 0.16720481216907504 -0.53613919019699086 -0.25868383049964899 0.71656858921051036
decision_type=2 2 2 2 2 2 2 2 2 2 2 2 2 2 2 2 2 2 2 2 2 2 2 2 2 2 2 2 2 2 2 2 2 2 2 2
left_child=33 2 4 5 23 12 7 13 9 -6 24 -11 17 29 28 -13 -5 22 19 -17 21 26 -3 -2 -9 -16 -19 -15 -7 -4 -8 -12 -25 -1 -28 -29
right_child=1 3 6 16 8 14 30 10 -10 11 31 15 -14 27 25 18 -18 20 -20 -21 -22 -23 -24 32 -26 -27 34 35 -30 -31 -32 -33 -34 -35 -36 -37
leaf_value=0.022907252039951937 -0.01734494165569371 -0.021031501691016825 0.010906963266131959 0.077757848812222738 0.0025085823485826789 0.0069839813029612058 0.064251318839825877 0.032146549502824279 0.01021005793533202 0.0038269975974212582 -0.0061539788486904444 1.0188818626364272e-05 0.034749500560890691 -0.0016871608502421658 -0.027396901784298589 -0.10435723354653004 -0 0.020390367763663535 -0.0046393814583337578 -0.016349646560580983 0.011057541883262098 -0.064447583026318533 0.037096767298382911 0.041857914232883105 -0.016783050499790984 0.022075398867531904 -0.033444143998201351 0.06264951631098957 0.072222336868658699 -0.031495282627803066 0.0040096236482845124 -0.067817126040856282 -0.002082527197163864 0.10674398765214395 0.00080163406920477555 0.0059561124099946506
leaf_weight=404.91126134991646 423.28530299663544 234.89121586084366 221.28802636265755 987.96947073936462 402.99012334644794 302.84061229228973 308.00597390532494 292.78203934431076 328.74683557450771 234.74409620463848 262.1966714411974 223.33095175027847 260.72032636404037 220.66062924265862 266.27757343649864 1811.5939642488956 282.51770132780075 296.86952976882458 259.51179651916027 418.18274518847466 328.67545241117477 878.52434520423412 330.34218117594719 250.07965958118439 295.31114323437214 215.31168958544731 224.54027786850929 327.90545465052128 564.62656217813492 317.52304592728615 253.36555171012878 612.2582523226738 230.61099553108215 478.12160322070122 208.2666257172823 215.31874370574951
leaf_count=878 974 574 517 2144 955 700 665 718 780 569 642 528 619 505 625 4528 620 717 631 998 808 2190 804 576 733 501 562 783 1302 739 553 1529 532 1014 506 513
internal_value=0 -0.00715366 -0.037808 0.0371869 -0.0692543 0.010093 0.00821752 -0.014489 -0.0888481 -0.0999917 -0.0524573 -0.113171 -0.0203943 0.0300007 0.0629306 -0.123188 0.0995612 -0.0351426 -0.132958 -0.143704 -0.0527797 -0.0681136 0.0209809 0.0126756 0.0157338 -0.00705503 -0.00697508 0.064725 0.0920164 -0.0250742 0.0788463 -0.0891533 0.0446677 0.13675 -0.0369614 0.0821631
internal_weight=0 13292.1 7909.69 5382.37 4583.08 4111.89 3326.62 2765.24 3679.1 3350.35 1462.55 2947.36 2762.83 1302.7 1349.06 2712.62 1270.49 2502.11 2489.29 2229.78 1936.88 1608.2 565.233 903.976 588.093 481.589 729.676 763.885 867.467 538.811 561.372 874.455 480.691 883.033 432.807 543.224
internal_count=33532 31640 18968 12672 11071 9908 7897 6679 8989 8209 3622 7254 6780 3057 3128 6685 2764 6161 6157 5526 4783 3975 1378 2082 1451 1126 1785 1801 2002 1256 1218 2171 1108 1892 1068 1296
shrinkage=0.65


Tree=19
num_leaves=38
num_cat=0
split_feature=0 3 100 125 65 175 32 136 107 25 93 91 78 112 82 13 4 24 144 36 49 1 117 143 89 163 17 82 151 49 24 3 105 165 24 69 44
split_gain=20.1584 18.2457 14.9542 10.5266 7.58865 8.30265 7.02194 6.29245 5.67496 4.8171 4.78088 4.77426 4.73039 3.72521 3.17773 3.12228 2.6064 2.51276 3.43698 2.4783 2.37393 2.29819 2.26842 2.24629 2.40334 2.06288 2.05082 1.98728 1.55689 1.15924 1.13188 1.07001 1.02413 0.558241 0.474788 0.0543846 0.0511199
threshold=8.7656931877136248 -1.7694087624549864 -1.6590380072593687 -1.8607308268547056 -3.3502279520034786 -0.27336730062961573 -3.8829761743545528 1.5679478049278261 2.0150033235549931 -3.7245547771453853 -0.018350800499320027 0.45404067635536199 0.89300203323364269 -0.2745594978332519 0.019451942294836048 -6.1734113693237296 -7.4520471096038809 -3.5359019041061397 -1.3295375704765318 -0.20461251586675641 -0.76904362440109242 -13.004587173461912 0.52229315042495739 0.015842959284782413 -0.16279269009828565 -1.1894139051437376 -1.0221137404441831 1.2819318175315859 0.40123103559017187 -0.45372354984283442 -1.282899737358093 4.6519148349761972 -0.15277475118637082 -0.31884405016899103 0.43461060523986822 -0.092584203928709016 1.6545563936233523
decision_type=2 2 2 2 2 2 2 2 2 2 2 2 2 2 2 2 2 2 2 2 2 2 2 2 2 2 2 2 2 2 2 2 2 2 2 2 2
left_child=2 -2 9 14 27 11 19 8 10 34 15 12 23 28 -4 -8 -11 -13 -19 -7 -15 -18 -17 33 -25 -3 -16 -5 -12 -9 -14 -23 -24 -6 -1 -28 -20
right_child=1 25 3 4 5 6 7 29 -10 16 13 17 30 20 26 22 21 18 36 -21 -22 31 32 24 -26 -27 35 -29 -30 -31 -32 -33 -34 -35 -36 -37 -38
leaf_value=0.021436508499556781 -0.046295111487444966 0.010641084378195715 -0.06988302010033319 -0.057759767623113537 0.0046004326327087081 -0.050030885453377257 0 0.012746529448673089 -0.013107263991526079 -0 0.065099744518993655 0.011119434106319192 0.007768023876650567 0.023620845982442375 0.024349003527977552 0.1089812265004938 -0.0012962868180261087 0.010980802898002073 -0.070009243036404045 0.013276675131657326 -0.028795893202630415 -0.094401338939489599 -0.0093909918326020962 0.027777028499397848 -0.027337208101993329 0.11329725854163901 0 0.0064727235396346058 -0 -0.031472386160571547 -0.041619600945625577 -0.018755903015307721 0.038192871522788073 0.05853938691355768 -0.014245726978875098 -0.037989917875535101 -0.0088471360873447046
leaf_weight=226.3306185901165 222.30825224518776 235.92904874682426 743.77368885278702 554.75348326563835 312.28822952508926 282.91664293408394 216.35804125666618 308.57349336147308 410.57880572974682 262.96282038092613 428.10629230737686 275.45401532948017 217.78908503055573 377.83067521452904 281.32438093423843 923.82356418669224 229.27254554629326 237.14177359640598 659.74722526967525 285.45812518894672 557.83025525510311 1141.9001771658659 220.09668980538845 336.4907206594944 422.11539676785469 679.93769571185112 214.94620069861412 213.80577422678471 253.29865515232086 353.50439457595348 440.34142401814461 425.13331112265587 267.75869217514992 498.64815331995487 214.71491658687592 211.52709372341633 241.2942970097065
leaf_count=532 519 501 1802 1338 727 707 500 711 971 612 956 653 513 855 682 2076 516 558 1530 699 1271 2813 509 778 973 1434 506 514 574 836 1028 1005 606 1141 511 504 571
internal_value=0 0.100696 -0.0205172 -0.00275708 0.0108139 0.0207951 0.0469558 0.0610568 0.0766913 -0.0849107 0.0901435 -0.015315 0.0146065 0.0346441 -0.0728079 0.126027 -0.102974 -0.0554184 -0.073486 -0.0393238 -0.00981639 -0.115115 0.140412 0.0434128 -0.00175205 0.152592 -0.00861143 -0.0668263 0.0767719 -0.02056 -0.0431809 -0.127172 0.0333459 0.0724358 0.00747997 -0.0437192 -0.0957971
internal_weight=0 1138.17 13247.9 10747.6 9296 8527.44 4886.13 4317.76 3655.68 2500.31 3245.1 3641.31 2227.67 1617.07 1451.57 1628.04 2059.27 1413.64 1138.18 568.375 935.661 1796.31 1411.68 1569.54 758.606 915.867 707.798 768.559 681.405 662.078 658.131 1567.03 487.855 810.936 441.046 426.473 901.042
internal_count=33532 2454 31078 25089 21595 19743 11271 9865 8318 5989 7347 8472 5160 3656 3494 3691 4946 3312 2659 1406 2126 4334 3191 3619 1751 1935 1692 1852 1530 1547 1541 3818 1115 1868 1043 1010 2101
shrinkage=0.65


Tree=20
num_leaves=36
num_cat=0
split_feature=36 32 143 36 17 158 53 34 85 22 26 70 175 78 38 150 36 78 74 113 37 1 42 168 46 22 62 122 85 32 155 69 144 156 112
split_gain=35.2982 21.3799 13.3772 11.2688 12.3942 10.2526 8.55891 7.60892 6.80358 6.23751 5.92348 5.67121 4.14016 4.02797 3.88143 3.76516 3.06769 2.70757 2.56845 2.52215 2.42964 2.27462 1.75149 1.72535 1.96111 1.57188 1.47286 1.41467 1.3376 1.19163 1.16984 0.977158 0.842156 0.715957 0.362201
threshold=-5.169708013534545 -4.1129703521728507 1.7131482958793642 0.22969928383827212 5.4733343124389657 -0.12592965364456174 3.8548345565795903 0.98165088891983043 -1.07019567489624 -0.28780207037925715 -3.9889962673187251 2.9840492010116582 -1.9608218669891355 2.7121998071670537 -0.37628385424613947 -2.3032160997390743 0.52580565214157116 0.68022269010543834 -1.7486952543258665 -0.48749612271785731 -1.5194580554962156 -4.5881350040435782 0.64469251036643993 1.4326000809669497 -0.056804826483130448 0.92863535881042492 0.09849815815687181 0.29519936442375189 -1.4857113957405088 -5.8288445472717276 0.17528716474771502 2.6205649375915532 -0.63602933287620533 -0.9980500042438506 -0.56361263990402211
decision_type=2 2 2 2 2 2 2 2 2 2 2 2 2 2 2 2 2 2 2 2 2 2 2 2 2 2 2 2 2 2 2 2 2 2 2
left_child=28 8 3 5 6 13 10 9 30 27 20 12 -12 18 21 -14 -10 22 -3 -16 -5 -4 -9 24 32 -6 -21 -7 -1 -18 -2 -17 -20 -11 -23
right_child=1 2 14 4 25 7 -8 17 16 33 11 -13 15 -15 19 31 29 -19 23 26 -22 34 -24 -25 -26 -27 -28 -29 -30 -31 -32 -33 -34 -35 -36
leaf_value=0.013535234175860243 -0.027089641102183086 0.002897482091384468 -0.0028531620699265114 0.026394036599632031 -0.0067840182732635344 -0.022452662742026761 0.016681095844373994 -0.051933295420249347 0.10178616472635153 0.0081918051004701668 -0.0022838625119050529 0.0030720810758147524 -0.0012777873817227539 0.021198057702040741 0.027480116506447161 -0.11066026958735872 0.033938221498413489 0.018265937920736757 0.011736043636465314 0.0075779855128146204 -0.031188083544478693 0.0079456138209079413 0.0046445912015791761 0.0017303451278521103 -0.079429871180473885 0.04743697821682949 -0.045022059453433294 0.022774325032024957 0.11350320988958595 -0.013967776419141063 0.018724975178394082 -0.018192567506500987 -0.029028543203333406 0.086058636975176489 0.078916440207532718
leaf_weight=238.42745292186737 266.84646955132484 424.93316277861595 234.57739961147308 261.0671185106039 336.13220009207726 415.83729976415634 386.22859962284565 469.3289595246315 579.83192139863968 220.54527840018272 271.14965403079987 285.75393594801426 206.63186545670033 269.40672773122787 380.48327644169331 2075.7427633702755 231.46171772480011 426.16481962800026 222.04419974982738 305.45625466108322 390.09977142512798 219.18337255716324 317.36879980564117 227.54351970553398 824.22400729358196 242.07700401544571 292.35913351178169 311.11115083098412 725.20406264066696 232.03545850515366 229.80209994316101 289.69582098722458 481.56434553861618 609.10848894715309 406.64842435717583
leaf_count=500 587 960 583 647 822 960 908 1077 1205 501 678 689 512 604 891 5414 523 955 504 712 997 509 720 512 1905 579 693 709 1502 526 504 713 1109 1390 932
internal_value=0 -0.0127291 -0.0281807 -0.042922 -0.0767905 -0.00845477 -0.0953819 0.0319021 0.0854879 0.0722458 -0.109345 -0.12618 -0.138534 -0.0523774 0.0442547 -0.149893 0.121116 -0.0246242 -0.0669045 -0.00368873 -0.00951577 0.0826063 -0.0538455 -0.0821151 -0.0930635 0.039726 -0.0393648 -0.00194543 0.155451 0.021612 -0.00974985 -0.160167 -0.0246442 0.11652 0.104669
internal_weight=0 13342.4 11802.5 9963.76 4744.58 5219.18 4166.37 2769.46 1539.98 1556.6 3780.14 3128.97 2843.22 2449.72 1838.71 2572.07 1043.33 1212.86 2180.31 978.299 651.167 860.409 786.698 1755.38 1527.83 578.209 597.815 726.948 963.632 463.497 496.649 2365.44 703.609 829.654 625.832
internal_count=33532 31530 28185 23865 11959 11906 10558 6312 3345 3560 9650 8006 7317 5594 4320 6639 2254 2752 4990 2296 1644 2024 1797 4030 3518 1401 1405 1669 2002 1049 1091 6127 1613 1891 1441
shrinkage=0.65


Tree=21
num_leaves=38
num_cat=0
split_feature=36 81 94 88 85 0 14 86 27 114 172 108 97 48 137 61 37 117 34 59 65 48 148 98 138 86 4 32 36 174 132 153 157 10 94 1 86
split_gain=22.8439 16.2377 7.51715 7.99215 7.16055 6.95885 5.65612 5.62394 5.33785 4.58491 4.37484 4.2144 4.00017 3.7964 2.81506 2.72117 2.59322 2.3805 2.29302 2.21661 2.10282 2.09327 2.07823 1.96369 2.72719 1.80908 1.7508 1.67638 1.50898 1.42558 2.84334 1.30434 1.1596 0.815956 0.76559 0.512517 0.035034
threshold=6.5219666957855233 0.39269158244133001 -1.6964458227157591 1.6831942796707156 0.60435888171195995 -3.9180446863174434 4.5720007419586191 0.4989974200725556 1.423411548137665 2.9057192802429204 -0.46662929654121393 1.258821487426758 0.93038156628608715 -0.35886162519454951 1.6022478938102724 0.34275393187999731 2.3270276784896855 -2.6415222883224483 -1.9295834302902219 1.7479127645492556 0.25665181875228887 -1.2731236815452573 -0.45144645869731898 2.2417423725128178 -2.022161483764648 0.53869274258613598 -3.9054664373397823 1.6450275778770449 -0.32720252871513361 1.874806344509125 -1.6559981703758238 -0.46740968525409693 -0.30274498462676996 1.933016359806061 0.31490978598594671 6.5550248622894296 0.078641500324010863
decision_type=2 2 2 2 2 2 2 2 2 2 2 2 2 2 2 2 2 2 2 2 2 2 2 2 2 2 2 2 2 2 2 2 2 2 2 2 2
left_child=1 2 8 6 7 20 9 10 19 11 18 17 -9 33 27 36 31 -4 -3 26 -6 32 -23 24 -19 -10 -1 35 -15 30 -26 -13 -12 -5 -14 -7 -8
right_child=-2 4 3 13 5 14 15 12 25 -11 21 16 34 28 -16 -17 -18 23 -20 -21 -22 22 -24 -25 29 -27 -28 -29 -30 -31 -32 -33 -34 -35 -36 -37 -38
leaf_value=-0.001333732621909113 0.09917548060911717 -0.0069074243535752252 0 0.052976017791051468 0.054739198472278934 -0.067110626079662575 0.040094782035825727 0.082997613336583523 -0.046104791755744161 0.014918243089249867 -0.012506080480555246 0.0065198022404397383 0.022903623046368848 -0.039927006446711953 0.015485351215378272 -0.026564899987228569 0.027461831393280459 -0.0036513843454009875 0.057721856278056038 -0.0081618567527251031 -0.0057259087122863463 0.0093474513506169449 -0.046178903720206332 -0.0094628555942795275 -0.010550498280205375 0.011497367022323608 0.067116005079845817 -0 0.0097121621636919592 -0.0072447871400741666 -0.10544898737317147 -0.044432115488658129 0.035881355984158356 -0.00049656720968851921 -0.0173443875226756 -0.0046227069966676883 0.00026612300925883968
leaf_weight=213.20673058927059 573.20058900117874 255.01509083807468 218.03962905704975 356.48501619696617 379.98040683567524 576.17718514800072 229.45485430955887 1047.9342184066772 302.92401519417763 246.05027481913567 213.9424883723259 266.30906970798969 244.54973539710045 298.67218998074532 254.9529149979353 354.48437185585499 215.3156256377697 255.16535341739655 563.75678414106369 244.64247919619083 333.15213762223721 334.60635295510292 549.94146007299423 359.47829084098339 298.54879169166088 235.91001629829407 531.48312410712242 376.76271438598633 370.90233780443668 204.15429218113422 1599.707072943449 443.5931351184845 251.74539165198803 216.29394295811653 218.27710086107254 225.01513540744781 231.87056276202202
leaf_count=518 1195 612 517 836 903 1480 540 2384 722 575 511 644 557 772 606 832 514 614 1339 573 803 809 1349 854 740 538 1237 844 846 502 4020 1076 605 500 507 516 542
internal_value=0 -0.00536077 -0.0352135 -0.0506948 0.0336094 -0.0122362 -0.0682193 0.0590727 0.0241447 -0.0826674 0.0179258 -0.091258 0.100572 0.0178272 -0.0499274 0.00713418 -0.0173168 -0.109078 0.0640381 0.0616397 0.0529152 -0.0181884 -0.0438355 -0.11678 -0.127358 -0.0404691 0.0825397 -0.0686139 -0.0289136 -0.138276 -0.146935 -0.0453828 0.0270677 0.0624325 0.00612689 -0.0889733 0.0470636
internal_weight=0 13518.5 7692.69 6164.52 5825.81 2146.04 4922.17 3679.77 1528.17 4106.36 2169.01 3860.31 1510.76 1242.35 1432.91 815.81 925.218 2935.09 818.772 989.332 713.133 1350.24 884.548 2717.05 2357.58 538.834 744.69 1177.96 669.575 2102.41 1898.26 709.902 465.688 572.779 462.827 801.192 461.325
internal_count=33532 32337 18512 14924 13825 5152 11970 8673 3588 10056 5225 9481 3448 2954 3446 1914 2234 7247 1951 2328 1706 3274 2158 6730 5876 1260 1755 2840 1618 5262 4760 1720 1116 1336 1064 1996 1082
shrinkage=0.65


Tree=22
num_leaves=35
num_cat=0
split_feature=3 8 17 120 100 25 25 9 157 20 94 27 156 147 101 143 44 157 170 126 24 67 9 172 8 91 125 26 5 134 151 91 175 63
split_gain=15.3392 12.5514 9.18331 6.39953 6.36911 6.27333 6.14188 6.08965 6.05987 4.98708 4.90695 5.14079 4.77405 4.37394 3.93729 3.35584 2.94875 2.83834 2.71465 1.92719 1.76638 1.67018 1.52298 1.47533 1.29062 1.14964 1.02566 0.968535 0.622496 0.461408 0.400533 0.330767 0.319842 0.224799
threshold=4.8601102828979501 -1.3760049343109129 1.7423727512359621 0.32682695984840399 1.0449420809745791 -2.0856716632843013 -3.7245547771453853 1.8740736246109011 1.3894937038421633 -5.443917751312255 -2.1189389228820796 -2.6801134347915645 1.246853828430176 -1.8612457513809202 -1.8609381318092344 0.23519750684499743 0.63837260007858287 1.2055162787437441 1.4148842692375185 1.9825370311737063 0.67479568719863903 -0.04664786905050277 0.3448121994733811 -2.1254616975784297 -2.9007358551025386 -1.0446897745132444 0.98407858610153209 -3.5588756799697872 0.38184104859828955 0.4457185715436936 -0.049623325467109673 -2.0501493215560909 0.26236093044281011 -1.9755138754844663
decision_type=2 2 2 2 2 2 2 2 2 2 2 2 2 2 2 2 2 2 2 2 2 2 2 2 2 2 2 2 2 2 2 2 2 2
left_child=1 4 8 10 6 15 20 24 13 -8 32 28 14 -2 -13 30 26 27 25 33 -1 -14 -18 -11 -6 31 -4 -16 -12 -10 -5 -7 -3 -15
right_child=2 3 16 5 7 18 9 -9 29 23 11 12 21 19 17 -17 22 -19 -20 -21 -22 -23 -24 -25 -26 -27 -28 -29 -30 -31 -32 -33 -34 -35
leaf_value=0.027503679479340407 -0.006693919066511362 -0.041727600632426448 -0.046544015195221042 0.055749954317404503 0.044681117197068902 -0.022279570818045547 0.0061743351353693429 -0.046579724106259442 0.010103247855352009 -0.0067429218413357604 0.0058995312394747928 -0.013195091269483527 -0.033558216283971085 0.013284734453631963 0.0088537460090618112 -0.019367130217248334 0.038570106861582305 0.0015943003791354118 0.0075384985033808746 0.0028561351340999049 -0.025791598670380608 0.016630747671041998 -0.014368984442697954 -0.092734602029064514 -0.0064479602712688554 -0.062296687124866801 0.0041058113514700007 0.077034854511174602 -0.032543160101683184 -0.025086112226715078 0.0025210067786811102 0.010874389471853299 0.00017052640217780148 0.090803574189854991
leaf_weight=279.25033378601074 258.76177947223186 285.70560672879219 537.46572184562683 240.10397300124168 451.78018313646317 213.63845326006413 229.68068936467171 379.63399204611778 288.25081646442413 211.81882397830486 305.10691860318184 251.0120205283165 293.03732970356941 245.09453900158405 301.35573527216911 408.00292958319187 276.54337927699089 412.85538306832314 322.7133134752512 222.87605056166649 211.63162043690681 339.40374848246574 211.80841432511806 1671.4885250627995 258.38797721266747 1192.0416936576366 221.8944031894207 1299.9015732109547 382.75295051932335 216.23906607925892 255.06615100800991 236.0438174456358 225.5722731500864 1160.225991949439
leaf_count=643 605 680 1247 556 1059 515 552 959 662 542 735 598 692 562 688 952 639 948 781 509 509 783 504 4110 601 2805 523 2904 892 506 583 551 539 2598
internal_value=0 -0.028372 0.0446102 -0.00171714 -0.0729668 -0.036537 -0.0974521 -0.00278609 0.0776011 -0.118053 0.0235906 0.0379938 0.0560713 0.100444 0.0757754 0.026375 -0.0217089 0.089623 -0.0654213 0.117004 0.00385632 -0.0156651 0.0291146 -0.132916 0.0462958 -0.0803084 -0.0539439 0.106329 -0.0295383 -0.0136726 0.0660757 -0.0112753 -0.0475669 0.129105
internal_weight=0 10658 3639.16 6964.31 3693.67 2867.61 2603.87 1089.8 2391.45 2112.99 4096.7 3585.43 2897.57 1886.96 2265.12 903.173 1247.71 2014.11 1964.44 1628.2 490.882 632.441 488.352 1883.31 710.168 1641.72 759.36 1601.26 687.86 504.49 495.17 449.682 511.278 1405.32
internal_count=33532 25177 8355 16202 8975 6743 6356 2619 5442 5204 9459 8240 6613 4274 5138 2091 2913 4540 4652 3669 1152 1475 1143 4652 1660 3871 1770 3592 1627 1168 1139 1066 1219 3160
shrinkage=0.65


Tree=23
num_leaves=39
num_cat=0
split_feature=35 98 86 71 101 60 26 26 169 122 36 70 85 23 72 39 39 164 4 108 123 126 83 1 37 124 121 94 101 63 123 64 131 61 97 99 86 129
split_gain=24.9074 15.5854 9.30314 8.02762 7.70657 7.15259 5.56937 5.05075 4.58691 4.4384 4.35692 4.16376 4.08132 5.0946 3.52743 3.36605 3.16878 3.11387 3.08565 2.86924 2.8262 2.70132 2.12014 2.05771 2.0497 1.9691 1.83509 1.1914 1.07678 0.954943 0.952103 0.78006 0.691981 0.687691 0.672846 0.604414 0.511134 0.369261
